tree
version=v4
num_class=1
num_tree_per_iteration=1
label_index=0
max_feature_idx=26
objective=regression
feature_names=sale_year sale_month CITY ZIP_CODE LONGITUDE LATITUDE YR_BUILT YR_REMODEL INT_COND EXT_COND OVERALL_COND LAND_SF GROSS_AREA LIVING_AREA BED_RMS FULL_BTH HLF_BTH KITCHENS TT_RMS AC_TYPE NUM_PARKING HEAT_CLASS trend_5yr_norm long_term_norm long_term_log_trend HAS_REMODEL HAS_YR_BUILT
feature_infos=none [1:12] -1:5:14:13:6:1:10:8:7:2:3:11:9:0:12 -1:13:21:16:17:20:19:24:11:23:18:14:9:12:15:7:8:22:4:10:0:3:5:6:26 [-71.173876160000006:-71.002903279999998] [42.237601849999997:42.391218790000003] [1820:2023] [1935:2024] -1:0:3:1:2:4 -1:0:2:1:3 -1:0:3:2:1:4 [500:998] [1120:196606] [660:177776] [1:15] [0:7] [0:4] [0:4] [3:20] -1:2:0:1 [0:14] -1:1:3:2:0 [-0.096586441999999995:0.19111429699999999] [-0.043168827:0.17908239000000001] [-0.035084756000000002:0.21648110400000001] [0:1] none
tree_sizes=3025 3327 3585 3313 3326 3419 3317 3240 3322 3399 3418 3414 3315 3440 3226 3232 3326 3342 3315 3459 3248 3518 3500 3168 3256 3522 3331 3166 3442 3437 3072 3225 3340 3337 3413 3328 3166 3233

Tree=0
num_leaves=35
num_cat=1
split_feature=24 22 7 13 1 3 12 4 18 1 6 6 1 20 18 12 24 1 6 6 18 14 18 4 18 7 1 6 6 18 12 22 22 1
split_gain=10.3075 2.17233 1.56255 1.47999 1.46134 1.07004 1.28423 0.535702 0.765303 0.650455 0.451268 0.38665 0.517195 0.370401 0.522176 0.380287 0.30104 0.326672 0.296286 0.351552 0.276793 0.246566 0.241537 0.209769 0.217231 0.207436 0.17809 0.143226 0.133301 0.115795 0.10868 0.0996285 0.0671888 0.0396567
threshold=0.026307502500000003 0.0052875415000000004 2018.5000000000002 938.00000000000011 7.5000000000000009 0 5051.0000000000009 -71.078364064999974 15.500000000000002 9.5000000000000018 1964.5000000000002 1897.0000000000002 5.5000000000000009 2.5000000000000004 9.5000000000000018 3145.0000000000005 0.061858790500000004 6.5000000000000009 1902.5000000000002 1897.0000000000002 9.5000000000000018 4.5000000000000009 8.5000000000000018 -71.121666924999985 10.500000000000002 1988.5000000000002 7.5000000000000009 1935.5000000000002 1919.5000000000002 12.500000000000002 2779.5000000000005 0.060446991000000012 0.050082422500000008 6.5000000000000009
decision_type=10 8 10 10 2 9 10 2 10 2 10 10 2 10 10 10 10 2 10 10 10 10 10 2 10 10 2 10 10 10 10 10 10 2
left_child=1 -1 3 -2 -3 13 10 9 -9 32 11 12 -7 14 15 26 17 30 19 -4 -20 28 -14 27 25 -25 -5 33 -15 -16 -13 -23 -8 -18
right_child=2 4 18 5 -6 6 7 8 -10 -11 -12 16 22 21 29 -17 23 -19 20 -21 -22 31 -24 24 -26 -27 -28 -29 -30 -31 -32 -33 -34 -35
leaf_value=0.21331319701863802 0.20452350898791805 0.2080627297049884 0.19984532694284765 0.20056753717102538 0.19802297196663285 0.19249697923202438 0.19580379948831197 0.1868460251806334 0.19451209864938002 0.19056883414736403 0.19298680932595874 0.19875040378268177 0.19497420678260771 0.19696644607778008 0.19531465700441342 0.20368178892637759 0.19352810041825588 0.19667734807136425 0.19702177259899761 0.20543077539133342 0.20140694789130612 0.1970320051797437 0.19880397241198233 0.20033512955272278 0.19590777719365376 0.19651773533131561 0.1971955424391148 0.19744992212654067 0.19360570922136841 0.19813729150207082 0.20151458604433875 0.19975170518139423 0.19820760572906038 0.19554680189960938
leaf_weight=37 20 29 21 36 23 38 20 25 24 21 30 23 27 21 23 25 23 37 25 20 25 26 31 32 38 20 22 22 23 29 29 21 21 24
leaf_count=37 20 29 21 36 23 38 20 25 24 21 30 23 27 21 23 25 23 37 25 20 25 26 31 32 38 20 22 22 23 29 29 21 21 24
internal_value=0.19818 0.20782 0.197126 0.196664 0.203701 0.196435 0.195667 0.192791 0.19045 0.194736 0.196463 0.196781 0.195173 0.198205 0.199197 0.200662 0.197413 0.198807 0.200814 0.202675 0.199233 0.196732 0.196995 0.196635 0.197602 0.198861 0.199292 0.195402 0.195145 0.196856 0.200324 0.198252 0.197004 0.19448
internal_weight=911 89 822 731 52 711 485 111 49 62 374 344 96 226 135 83 248 89 91 41 50 91 58 159 90 52 58 69 44 52 52 47 41 47
internal_count=911 89 822 731 52 711 485 111 49 62 374 344 96 226 135 83 248 89 91 41 50 91 58 159 90 52 58 69 44 52 52 47 41 47
cat_boundaries=0 1
cat_threshold=25468928
is_linear=0
shrinkage=1


Tree=1
num_leaves=36
num_cat=1
split_feature=14 13 7 3 20 5 24 4 22 23 13 4 4 22 1 22 5 23 24 22 4 6 7 24 5 7 5 5 13 22 15 4 13 6 22
split_gain=11.3806 1.88521 1.05122 1.06421 0.724869 0.581929 0.629814 0.550424 0.534335 0.570239 0.506781 0.414638 0.484119 0.385915 0.468881 0.327783 0.31224 0.298539 0.463459 0.282528 0.278846 0.25727 0.383687 0.180489 0.208181 0.130521 0.1286 0.319283 0.194789 0.106911 0.104704 0.0931926 0.0767282 0.0647129 0.0407726
threshold=1.0000000180025095e-35 13927.000000000002 2018.5000000000002 0 2.5000000000000004 42.30389502500001 0.037563721500000008 -71.134976419999973 0.00066282600000000015 0.020801435000000004 3100.0000000000005 -71.059096834999991 -71.077360909999996 0.060446991000000012 6.5000000000000009 0.049792972000000012 42.330881975000004 0.057382384500000008 0.08214848750000002 0.053727207500000006 -71.089282494999992 1897.0000000000002 1984.5000000000002 0.080726245000000016 42.285022965000003 2015.5000000000002 42.322139005000004 42.332686095000007 1980.5000000000002 0.07136242700000002 1.5000000000000002 -71.037279774999988 1400.1000000000001 1889.5000000000002 0.052955030000000007
decision_type=10 8 10 9 10 2 10 2 8 10 10 2 2 8 2 10 2 10 10 10 2 10 10 10 2 8 2 2 10 8 10 2 10 10 10
left_child=1 8 3 4 15 7 -7 -5 -1 -10 21 12 20 19 -15 -2 29 25 -19 30 -12 22 -8 24 -9 -17 -23 -28 32 -4 -6 -30 -29 -24 -26
right_child=2 -3 16 5 13 6 10 23 9 -11 11 -13 -14 14 -16 17 -18 18 -20 -21 -22 26 33 -25 34 -27 27 28 31 -31 -32 -33 -34 -35 -36
leaf_value=0.016559614403681321 0.004446059941713299 0.0019367161257700487 0.0017677298755318458 -0.0047586992196738719 -0.0028713594611896121 0.00081035401392728088 -0.0064045842724985312 -0.00066062986938050013 0.0062617851539107502 0.013213554092993338 -0.006605248779058456 -0.0018850880954414605 -0.0098091005254536869 0.0037152258014645089 -0.0024814182679719207 -0.0025883080690718169 0.0041699364769262016 0.0053608075054362419 -0.00012523237033747135 -0.0052132676682085733 -0.0017987866981738162 -0.0033957419717434707 -0.00085478238592093638 -0.001782020725575941 0.001427515358240767 0.0004029709158401767 0.0019151111378927122 -0.0019895619812252165 -0.0049795599840581411 -0.00088110274221334193 -3.7203745543956753e-05 -0.0020191595538265323 0.00047223979257978501 -0.003190804065670818 0.0034185398111419218
leaf_weight=21 27 21 27 23 22 34 34 35 23 26 24 25 25 21 21 21 33 24 31 29 21 37 21 27 21 32 21 21 21 26 24 21 23 23 20
leaf_count=21 27 21 27 23 22 34 34 35 23 26 24 25 25 21 21 21 33 24 31 29 21 37 21 27 21 32 21 21 21 26 24 21 23 23 20
internal_value=-6.82017e-05 0.00993444 -0.00119587 -0.00156618 5.56352e-05 -0.00237284 -0.00304901 -0.000666877 0.0122727 0.010141 -0.00346419 -0.00529951 -0.00647523 -0.00166293 0.00063125 0.00155042 0.00192511 0.000792367 0.00232166 -0.00293907 -0.0044501 -0.00265856 -0.00404487 0.000283802 0.00103132 -0.000808236 -0.00188493 -0.00133589 -0.00214263 0.000476049 -0.00142492 -0.00358074 -0.000720814 -0.00211966 0.00245702
internal_weight=906 91 815 729 252 477 351 126 70 49 317 95 70 117 42 135 86 108 55 75 45 222 78 103 76 53 144 107 86 53 46 42 44 44 41
internal_count=906 91 815 729 252 477 351 126 70 49 317 95 70 117 42 135 86 108 55 75 45 222 78 103 76 53 144 107 86 53 46 42 44 44 41
cat_boundaries=0 1
cat_threshold=19144704
is_linear=0
shrinkage=0.03


Tree=2
num_leaves=39
num_cat=1
split_feature=15 12 22 4 5 7 3 20 13 4 24 24 13 23 7 23 22 1 12 22 22 5 5 12 5 24 7 12 12 4 12 4 6 13 18 17 4 12
split_gain=10.4416 2.66511 1.21028 1.18211 1.66069 0.87249 0.872888 0.659892 0.465182 0.423003 0.377865 0.424384 0.381229 0.64076 0.423131 0.332237 0.326476 0.309409 0.293547 0.26673 0.413203 0.232512 0.230383 0.240107 0.211168 0.210714 0.206398 0.197394 0.174926 0.157424 0.148491 0.137896 0.125629 0.0892765 0.07783 0.0739222 0.0636501 0.03169
threshold=1.0000000180025095e-35 9759.0000000000018 0.023444463000000002 -71.059760589999982 42.33939916500001 2018.5000000000002 0 2.5000000000000004 2850.6000000000004 -71.128727839999996 0.11094544150000001 0.086894659500000013 1917.5000000000002 0.058786239500000004 1989.5000000000002 0.056991766500000006 0.059763279500000009 9.5000000000000018 2163.0000000000005 0.059452401500000009 0.053432241000000005 42.333504180000006 42.322139005000004 3138.0000000000005 42.331959555000005 0.063318104000000014 1971.0000000000002 3573.0000000000005 4261.0000000000009 -71.06991180499999 2812.0000000000005 -71.141532324999986 1924.5000000000002 1939.5000000000002 12.500000000000002 1.5000000000000002 -71.071384729999991 5379.0000000000009
decision_type=10 10 10 2 2 10 9 10 10 2 10 10 10 10 10 10 10 2 10 10 10 2 2 10 2 10 10 10 10 2 10 2 10 10 8 10 2 10
left_child=1 3 -2 4 -1 6 7 8 9 26 11 12 16 14 27 25 18 34 -8 20 30 -20 33 -24 -15 -11 31 -14 36 -10 -9 -4 -22 -7 -13 -21 -16 -29
right_child=2 -3 5 -5 -6 22 10 19 29 15 -12 17 13 24 28 -17 -18 -19 21 35 32 -23 23 -25 -26 -27 -28 37 -30 -31 -32 -33 -34 -35 -36 -37 -38 -39
leaf_value=0.013442321580259885 0.0043121688206280984 -8.1402642694725229e-05 0.0022267831256613134 0.017894486460996707 0.0022878038457461768 0.0012480543461008762 -0.0024997507498067404 0.0006143350945785642 -0.00047449100969566241 0.0030069824917749923 0.0010151804726973006 -0.0082758035019717437 -0.0087939116545021536 0.0013140963768715403 -0.00027515973263819303 0.0054312666025777747 -0.0042984098036374365 -0.0023565222008619458 0.0033711807475425301 -0.0014458686681464313 -0.0033481371380388735 -0.00078078075079247345 0.0007506535852165974 0.0052230905127626922 -0.0026153379240581257 -0.0005850844239790199 -0.0029314820049330592 -0.0036832541557536885 -0.00489105661177415 -0.0039878998646911759 -0.0023885653647012076 -0.0011081789733309829 -0.0067842791858129204 -0.001518541390874556 -0.0049950420909694255 0.00064544182300807962 -0.0026045903338767261 -0.0058529768647118041
leaf_weight=31 34 21 23 22 20 20 27 23 26 32 21 21 20 27 20 27 20 23 24 29 24 23 22 21 21 26 20 21 21 20 39 20 21 20 20 30 22 21
leaf_count=31 34 21 23 22 20 20 27 23 26 32 21 21 20 27 20 27 20 23 24 29 24 23 22 21 21 26 20 21 21 20 39 20 21 20 20 30 22 21
internal_value=-7.42068e-05 0.00934716 -0.00115247 0.0120239 0.00919612 -0.0013913 -0.00173067 -0.000618766 0.000551597 0.00136992 -0.00276695 -0.00309258 -0.00254932 -0.00338218 -0.004506 0.00273847 -0.00099704 -0.00528492 -5.93632e-05 -0.0020187 -0.00290515 0.00136543 0.00150587 0.00300393 -0.000423321 0.00141412 -0.00049047 -0.00626142 -0.00270761 -0.00205441 -0.00128252 0.000685705 -0.0050643 -0.000138542 -0.00683247 -0.000389456 -0.00152753 -0.004879
internal_weight=923 94 829 73 51 795 712 360 194 148 352 331 267 173 125 85 94 64 74 166 107 47 83 43 48 58 63 62 63 46 62 43 45 40 41 59 42 42
internal_count=923 94 829 73 51 795 712 360 194 148 352 331 267 173 125 85 94 64 74 166 107 47 83 43 48 58 63 62 63 46 62 43 45 40 41 59 42 42
cat_boundaries=0 1
cat_threshold=20230144
is_linear=0
shrinkage=0.03


Tree=3
num_leaves=36
num_cat=1
split_feature=14 13 7 5 12 1 3 5 22 22 5 6 4 5 24 5 24 4 7 13 12 24 7 1 5 14 5 13 12 20 1 13 12 4 22
split_gain=11.7176 2.46804 0.886643 0.925618 0.691273 0.55221 0.786834 0.567578 0.545956 0.533968 0.389973 0.351484 0.332115 0.314442 0.295436 0.279859 0.266859 0.244694 0.237013 0.307779 0.209546 0.191065 0.131487 0.130777 0.224884 0.15419 0.11111 0.0936454 0.136297 0.197396 0.0878187 0.0666531 0.0643528 0.0625972 0.0549954
threshold=1.0000000180025095e-35 7644.2500000000009 2018.5000000000002 42.291648205000008 5051.0000000000009 8.5000000000000018 0 42.336367005000007 0.026185403000000003 0.044369123500000003 42.319798815000006 1907.5000000000002 -71.131764629999992 42.323085720000002 0.018052568500000001 42.322139005000004 0.076303320000000022 -71.07380019999998 1984.5000000000002 2451.4000000000005 3138.0000000000005 0.071324049500000014 1971.0000000000002 6.5000000000000009 42.284374085000003 3.5000000000000004 42.27117470000001 1369.6000000000001 3910.5000000000005 2.5000000000000004 5.5000000000000009 2588.0000000000005 2824.0000000000005 -71.037950729999991 0.075119957500000015
decision_type=10 10 10 2 8 2 9 2 10 10 2 10 2 2 10 2 10 2 10 10 10 8 10 2 2 10 2 10 10 10 2 10 10 2 10
left_child=1 4 3 9 -1 6 13 10 -8 -2 16 18 27 21 -6 34 -7 -13 30 -20 -17 -5 -23 25 26 -14 -25 -11 29 -29 -10 -27 -15 -9 -4
right_child=2 -3 15 5 14 7 8 33 11 12 -12 17 23 32 -16 20 -18 -19 19 -21 -22 22 -24 24 -26 31 -28 28 -30 -31 -32 -33 -34 -35 -36
leaf_value=0.0084794840778434476 0.0044788128649815911 0.0013789333216845988 0.00106849435870324 -0.0021683747912398898 0.011679188695549965 -0.0055903713938702509 0.0018031386196062983 -0.0022441742667662248 -0.0070121880793012677 6.2391410624100402e-05 -0.0074861529440833968 -0.0033217541710473595 -0.0021123044884422729 0.001207679733633995 0.018201280427830559 0.0011335324722209147 -0.0013812190312310123 1.7326778615824877e-05 -0.0008066850576189256 -0.0052539829654981276 0.0053628869756357743 0.0020534694753587242 -0.0010765918013137046 0.0017886727707545189 0.0038114854390732945 0.0019067505628547884 -0.0011088517164059271 -0.00086194152513948774 -0.00010500553656708111 -0.0044156663970651979 -0.0040315499994903799 -0.00034587830618525351 0.0036254319305653155 -0.00030851013609208168 -0.0010778500419110059
leaf_weight=30 21 24 21 38 24 26 21 34 29 21 38 39 27 20 20 20 29 39 30 26 23 26 21 21 23 21 25 25 21 33 21 25 22 27 20
leaf_count=30 21 24 21 38 24 26 21 34 29 21 38 39 27 20 20 20 29 39 30 26 23 26 21 21 23 21 25 25 21 33 21 25 22 27 20
internal_value=5.55524e-05 0.00981358 -0.00110284 -0.00143087 0.0124943 -0.00220537 -0.00150899 -0.00368723 -0.00258534 3.2602e-06 -0.00515252 -0.00323298 -0.000401947 0.00040535 0.0149824 0.00180454 -0.0034353 -0.00167313 -0.00435443 -0.00292745 0.00346622 -0.000614046 0.000661639 0.000530122 0.00145709 -0.000353903 0.000223844 -0.00171763 -0.00218567 -0.00292446 -0.00586392 0.000701185 0.00252898 -0.0014062 2.07625e-05
internal_weight=931 98 833 749 74 486 332 154 205 263 93 184 242 127 44 84 55 78 106 56 43 85 47 142 69 73 46 100 79 58 50 46 42 61 41
internal_count=931 98 833 749 74 486 332 154 205 263 93 184 242 127 44 84 55 78 106 56 43 85 47 142 69 73 46 100 79 58 50 46 42 61 41
cat_boundaries=0 1
cat_threshold=797184
is_linear=0
shrinkage=0.03


Tree=4
num_leaves=36
num_cat=1
split_feature=14 13 7 22 22 22 13 5 2 20 23 4 24 6 13 6 4 13 5 20 7 1 1 6 1 24 23 12 12 23 23 5 20 18 1
split_gain=8.67451 2.63392 0.845567 0.7729 0.747646 0.751447 0.666744 0.898617 0.796678 0.32621 0.399143 0.351936 0.334174 0.310974 0.40926 0.585285 0.308203 0.273324 0.238883 0.212824 0.179925 0.178603 0.239889 0.180353 0.141236 0.331471 0.143165 0.134404 0.131176 0.128497 0.114938 0.100202 0.0754479 0.063694 0.0438759
threshold=1.0000000180025095e-35 7644.2500000000009 2019.5000000000002 0.017309616000000003 0.017309616000000003 0.0052875415000000004 3044.5000000000005 42.294128265000005 0 2.5000000000000004 0.055722447000000008 -71.077875249999991 0.075038722000000016 1897.0000000000002 1369.6000000000001 1954.5000000000002 -71.059096834999991 1673.0000000000002 42.330881975000004 2.5000000000000004 1988.5000000000002 3.5000000000000004 7.5000000000000009 1902.5000000000002 6.5000000000000009 0.061591777500000007 0.055504453500000009 3005.5000000000005 3439.0000000000005 0.050330478500000005 0.050776834000000007 42.310306840000003 2.5000000000000004 8.5000000000000018 7.5000000000000009
decision_type=10 10 10 10 10 8 10 2 9 10 10 2 10 10 10 10 2 10 2 10 10 2 2 10 2 10 10 10 10 10 10 2 10 10 2
left_child=1 4 3 -2 5 -1 8 34 21 11 -11 12 -9 17 19 24 -13 -10 33 20 30 -5 28 -24 25 31 -27 -19 -23 -26 -15 -16 -31 -4 -8
right_child=2 -3 18 6 -6 -7 7 9 13 10 -12 16 -14 14 15 -17 -18 27 -20 -21 -22 22 23 -25 29 26 -28 -29 -30 32 -32 -33 -34 -35 -36
leaf_value=0.013122320126276463 0.0041551709296586718 -0.00040088388836011289 -0.00056251293334009286 -0.00067695638330112537 0.016278510998402326 0.0056949678808450701 0.0013735488566869337 -0.0036169474199414255 -0.0053368079604115331 -0.0028544123537986624 -0.0085263095429607867 -0.0065546780492149988 0.0016812364047985862 0.00041933544412521377 0.0031813270345862421 -0.0052998282620683309 -0.0019445243057794868 0.0001657326306615557 0.0040580126112035944 -0.001814412106043444 -0.0010440162030447807 0.0048166471874962254 -0.0016257786924358118 0.0022166530406949195 -0.0033506581943544694 -0.0035514056799001992 -0.00058739527571015056 -0.0028646650047177277 0.0015890128736424703 -0.00022998297694497383 0.0033089807783321969 0.00023836037080565635 -0.0022891795405718899 0.0017540002880351883 -0.00042459108104759993
leaf_weight=23 22 23 21 30 20 31 27 20 31 21 27 31 21 20 20 35 24 20 31 25 20 26 21 21 36 23 39 37 22 38 33 21 27 20 21
leaf_count=23 22 23 21 30 20 31 27 20 31 21 27 31 21 20 20 35 24 20 31 25 20 26 21 21 36 23 39 37 22 38 33 21 27 20 21
internal_value=2.12002e-05 0.00846329 -0.000973206 -0.00126845 0.011187 0.00903954 -0.00143576 -0.00295206 -0.000897151 -0.00413011 -0.00615375 -0.00306527 -0.000927826 -0.00148728 -0.00110148 -0.0017688 -0.00461362 -0.00310286 0.00211391 0.000527397 0.00134307 0.00121077 0.00197358 0.000302308 -0.00114009 -0.000352671 -0.00172587 -0.00181684 0.00339993 -0.00193177 0.00224651 0.00171552 -0.00110707 0.000582351 0.000594252
internal_weight=928 97 831 759 74 54 737 192 545 144 48 96 41 425 337 239 55 88 72 98 73 120 90 42 204 103 62 57 48 101 53 41 65 41 48
internal_count=928 97 831 759 74 54 737 192 545 144 48 96 41 425 337 239 55 88 72 98 73 120 90 42 204 103 62 57 48 101 53 41 65 41 48
cat_boundaries=0 1
cat_threshold=40
is_linear=0
shrinkage=0.03


Tree=5
num_leaves=37
num_cat=1
split_feature=24 13 22 5 12 14 3 22 6 4 12 13 5 4 13 5 6 12 22 5 18 24 13 13 23 5 22 6 4 4 1 13 23 13 6 24
split_gain=10.0117 1.77998 1.59463 1.08432 0.900911 0.899995 0.681525 0.522152 0.450812 0.456385 0.576489 0.415199 0.38707 0.378014 0.38889 0.308358 0.291199 0.246843 0.461261 0.327015 0.335919 0.226059 0.240592 0.56273 0.22443 0.174731 0.162301 0.160473 0.147008 0.129523 0.104678 0.0966799 0.0908107 0.0663889 0.0407968 0.0375303
threshold=0.026307502500000003 938.00000000000011 0.00066282600000000015 42.324715160000004 6932.5000000000009 10.500000000000002 0 0.085451385500000018 1962.5000000000002 -71.078364064999974 3101.0000000000005 2934.2000000000003 42.332456450000002 -71.091704829999983 3562.1000000000004 42.292638710000013 1899.5000000000002 2779.5000000000005 0.052246903500000004 42.286661300000013 10.500000000000002 0.063172783000000024 1681.3500000000001 2383.3000000000006 0.056991766500000006 42.294367740000006 0.060919685000000008 1907.5000000000002 -71.125402624999978 -71.059760589999982 8.5000000000000018 1451.4500000000003 0.065951729500000014 1389.0000000000002 1927.5000000000002 0.04997615100000001
decision_type=10 10 8 2 10 8 9 10 10 2 10 10 2 2 10 2 10 10 10 2 10 10 10 10 10 2 10 10 2 2 2 10 10 10 10 10
left_child=2 -2 -1 -4 5 6 11 8 9 13 12 17 -11 14 21 -13 -12 18 -3 -19 24 22 33 -24 -21 -10 -18 30 31 -20 -23 -29 -17 -8 -33 -25
right_child=1 4 3 -5 -6 -7 7 -9 25 10 16 15 -14 -15 -16 32 26 19 29 20 -22 27 23 35 -26 -27 -28 28 -30 -31 -32 34 -34 -35 -36 -37
leaf_value=0.015051227524395911 0.0073256198041649024 0.0022996925491968103 0.011504242860752602 0.0030403628275805228 -0.007055989988730289 0.0045772024500183757 0.00032924577038591867 0.0021241549599087901 -0.0030611301415964312 0.0023690178391656707 -0.0070990336178378627 0.00018219815519940409 -0.0027616484152774017 0.0019052260927855968 -0.0051727924380451434 -0.0050318609710250572 -0.0012369447624951135 -0.00067215931757042804 -0.00086903367673845159 0.002153984805488068 0.00024945314804991256 -0.0049323793238727374 -0.0042018754003049037 0.00010104542922066605 0.0065407904419724052 -0.0071434092228966099 -0.0046685975681141235 -0.0032710457458010604 0.00083231742596994568 -0.0042972984122544786 -0.0018460911173107367 -0.0018951871102675794 -0.0020317423317049231 0.0026041721400212156 -0.000118125451364271 0.0018789867684245109
leaf_weight=30 21 28 22 36 23 23 25 26 22 20 32 36 35 30 24 20 21 35 20 22 28 23 33 22 22 20 33 30 21 20 20 24 20 21 22 20
leaf_count=30 21 28 22 36 23 23 25 26 22 20 32 36 35 30 24 20 21 35 20 22 28 23 33 22 22 20 33 30 21 20 20 24 20 21 22 20
internal_value=-9.00069e-05 -0.00110021 0.00947954 0.00639137 -0.00132438 -0.00115056 -0.00132622 -0.00192293 -0.00217659 -0.00189432 -0.00330904 -1.45035e-06 -0.000886964 -0.00125259 -0.0015905 -0.00183889 -0.00483004 0.000802354 -0.000605824 0.00169459 0.00283855 -0.0012426 -0.000288761 -0.00133001 0.004444 -0.00512599 -0.00338082 -0.0020591 -0.00135906 -0.00264617 -0.00357148 -0.00196752 -0.00361794 0.00140111 -0.00106588 0.000971692
internal_weight=930 842 88 58 821 798 775 524 498 456 141 251 55 315 285 76 86 175 68 107 72 261 121 75 44 42 54 140 97 40 43 76 40 46 46 42
internal_count=930 842 88 58 821 798 775 524 498 456 141 251 55 315 285 76 86 175 68 107 72 261 121 75 44 42 54 140 97 40 43 76 40 46 46 42
cat_boundaries=0 1
cat_threshold=438400
is_linear=0
shrinkage=0.03


Tree=6
num_leaves=36
num_cat=1
split_feature=24 22 6 13 7 3 23 20 24 5 12 1 20 5 5 4 5 12 5 23 6 14 7 5 4 13 5 12 4 6 1 4 22 22 1
split_gain=8.34181 1.68916 1.4002 1.87567 0.848769 0.918441 0.991735 0.804342 0.630992 0.758815 0.453507 0.430471 0.508051 0.718659 0.433942 0.397839 0.35675 0.292705 0.259479 0.247661 0.235448 0.217827 0.21571 0.399209 0.438362 0.198319 0.188469 0.167462 0.207043 0.137498 0.111821 0.1099 0.0970791 0.0809983 0.0582618
threshold=0.026307502500000003 0.00066282600000000015 1856.0000000000002 4997.5500000000011 2018.5000000000002 0 0.041188880500000004 2.5000000000000004 0.075038722000000016 42.291648205000008 2812.0000000000005 7.5000000000000009 1.0000000180025095e-35 42.299169905000007 42.319090395000011 -71.041724339999988 42.330881975000004 5192.5000000000009 42.284641550000011 0.047625925500000006 1897.0000000000002 4.5000000000000009 1995.5000000000002 42.330280220000013 -71.129274904999988 1345.2000000000003 42.379032230000007 5817.5000000000009 -71.107681549999981 1912.5000000000002 5.5000000000000009 -71.078766909999985 0.054199605000000005 0.056298209000000009 5.5000000000000009
decision_type=8 10 10 8 10 9 10 10 10 2 10 2 8 2 2 2 2 10 2 8 10 10 10 2 2 10 2 10 2 10 2 2 10 10 2
left_child=1 -1 -2 4 5 6 -4 11 9 21 19 12 15 33 18 17 31 -8 -13 -7 -21 34 23 27 -25 -22 -16 28 -12 -10 -24 -6 -32 -14 -9
right_child=2 -3 3 -5 16 10 7 8 29 -11 22 14 13 -15 26 -17 -18 -19 -20 20 25 -23 30 24 -26 -27 -28 -29 -30 -31 32 -33 -34 -35 -36
leaf_value=0.016037154634084019 0.0065576162379558968 0.0059911637745895668 0.0061403112689202479 -0.0093964940945253407 0.001531057254840327 0.0015132691088894552 0.0040346432562705552 -0.0044401381830019605 0.0020743216160270905 -0.0086481117244277678 -0.0035256709665169609 -0.0015481492531086718 0.0026917910229946884 0.0079141632443212942 -0.004769454525498441 -0.0026824669644702225 0.0042680769188537899 -0.00084420099854469303 0.0028096037656068799 -0.0039106335734518669 0.0017729953879659826 0.00043707163708115164 -0.003390648770683373 -0.0030716888490132988 -0.009202061287042769 -0.0020982985583563839 -0.00081360787731162931 -0.0048628707019531207 -0.00025359662388124173 -0.0011680886102840304 -0.001953965073705397 -0.0012820096393781047 0.00066851796881694874 0.0001346176796592772 -0.0022521920848692601
leaf_weight=27 22 37 21 22 30 32 23 20 26 20 33 20 20 22 24 29 37 20 29 25 21 21 25 23 21 25 20 22 36 20 32 20 20 24 33
leaf_count=27 22 37 21 22 30 32 23 20 26 20 33 20 20 22 24 29 37 20 29 25 21 21 25 23 21 25 20 22 36 20 32 20 20 24 33
internal_value=5.72947e-05 0.0104108 -0.000744896 -0.000949563 -0.000703992 -0.00104859 -4.7756e-05 -0.000414872 -0.00220096 -0.00359802 -0.00221827 0.000672426 0.00173056 0.00361073 -0.000899416 -1.8778e-05 0.00207645 0.0017978 0.00103554 -0.000647004 -0.00162814 -0.00213602 -0.00307919 -0.00380344 -0.00613702 -0.000330848 -0.00302938 -0.00262067 -0.00184651 0.00066972 -0.00177691 0.000402756 -0.000951735 0.00133096 -0.00314477
internal_weight=902 64 838 816 794 707 392 371 140 94 315 231 138 66 93 72 87 43 49 103 71 74 212 135 44 46 44 91 69 46 77 50 52 44 53
internal_count=902 64 838 816 794 707 392 371 140 94 315 231 138 66 93 72 87 43 49 103 71 74 212 135 44 46 44 91 69 46 77 50 52 44 53
cat_boundaries=0 1
cat_threshold=19282432
is_linear=0
shrinkage=0.03


Tree=7
num_leaves=35
num_cat=1
split_feature=14 13 7 3 17 24 5 5 24 23 4 1 4 4 22 18 22 5 5 5 6 13 4 4 7 24 5 4 5 7 24 7 13 24
split_gain=6.43769 1.85689 0.891761 0.757314 0.580251 0.568729 0.486669 0.467702 0.37217 0.273132 0.251666 0.441661 0.320595 0.253528 0.233458 0.177006 0.197419 0.183497 0.532844 0.170949 0.167658 0.229493 0.294626 0.39956 0.185883 0.140887 0.140599 0.130969 0.0850364 0.177297 0.109133 0.0587231 0.0455715 0.0347868
threshold=1.0000000180025095e-35 7644.2500000000009 2021.5000000000002 0 1.5000000000000002 0.038028274500000007 42.30389502500001 42.343646775000003 0.054002321000000006 0.049827296500000007 -71.079717984999988 9.5000000000000018 -71.059096834999991 -71.105840884999978 0.05554654350000001 9.5000000000000018 0.054970896500000012 42.376069155000003 42.287062490000004 42.33218145 1890.5000000000002 1149.5000000000002 -71.107415794999994 -71.054707339999979 2020.5000000000002 0.08020545350000001 42.280822705000013 -71.077875249999991 42.293619785000011 1985.5000000000002 0.066138965500000022 1989.5000000000002 1398.6000000000001 0.065338155500000009
decision_type=10 10 10 9 10 10 2 2 8 10 2 2 2 2 10 10 10 2 2 2 10 10 2 2 8 10 2 2 2 10 10 10 10 8
left_child=1 7 3 8 20 -6 14 -1 -2 -10 11 13 31 -8 -7 17 -17 18 32 -14 24 -22 26 -24 -5 -18 33 -27 29 -28 -30 -12 -11 -23
right_child=2 -3 -4 4 5 6 10 -9 9 15 12 -13 19 -15 -16 16 25 -19 -20 -21 21 22 23 -25 -26 27 28 -29 30 -31 -32 -33 -34 -35
leaf_value=0.01187788457251512 0.0037262409527624107 4.382619813371163e-05 0.003340915549895726 -0.0010097349919087719 0.001266695255986773 0.00085650923848152162 -0.0033757801340626816 0.0066180923728804504 -0.0035364551256809916 -0.00080519412201829257 -0.0087780627362164 -0.0061096162928475275 -0.001549504182058508 0.00067768582059735702 -0.0029974413580364646 -0.0029477207525633277 0.0017147982044012418 -0.00073942618511194406 0.0058432484019015516 -0.0051825076877139503 0.0022860700608757526 0.00069043270445295739 0.003372775917041822 -0.0019972073989496992 -0.0044017264142166826 0.00073731732073015178 -0.0049221577785909174 -0.0019179013084794859 -4.5106208158863916e-05 -0.0010651795313294443 -0.0029545932116785221 -0.0056034751621440847 0.0010251617291942238 -0.00098261501829256283
leaf_weight=38 22 25 39 39 25 29 27 34 20 24 20 26 22 27 26 27 27 37 20 27 22 20 28 21 23 28 24 39 26 20 20 20 23 23
leaf_count=38 22 25 39 39 25 29 27 34 20 24 20 26 22 27 26 27 27 37 20 27 22 20 28 21 23 28 24 39 26 20 20 20 23 23
internal_value=-0.000166056 0.00710215 -0.00103238 -0.00125447 -0.00190669 -0.00298228 -0.00346001 0.00951878 7.43394e-05 -0.000264379 -0.00425451 -0.00296921 -0.00536401 -0.00137358 -0.000986351 4.08335e-05 -0.000736522 0.000943658 0.00187033 -0.00361498 -0.000963858 -0.00054302 -0.000895622 0.00107744 -0.00231795 -7.70474e-05 -0.00162515 -0.000813733 -0.00229326 -0.00323162 -0.00134605 -0.00736615 9.32089e-05 -0.000206447
internal_weight=918 97 821 782 515 249 224 72 267 245 169 80 89 54 55 225 121 104 67 49 266 204 182 49 62 94 133 67 90 44 46 40 47 43
internal_count=918 97 821 782 515 249 224 72 267 245 169 80 89 54 55 225 121 104 67 49 266 204 182 49 62 94 133 67 90 44 46 40 47 43
cat_boundaries=0 1
cat_threshold=17211392
is_linear=0
shrinkage=0.03


Tree=8
num_leaves=36
num_cat=2
split_feature=14 13 7 22 3 22 22 17 6 12 13 7 3 13 12 20 17 13 23 7 22 14 1 22 1 5 5 12 13 5 23 12 5 7 5
split_gain=8.63389 2.06361 0.894109 0.683924 0.630164 0.457964 0.779337 0.451256 0.590468 0.57682 0.503052 0.487098 0.368574 0.352951 0.390716 0.388722 0.45249 0.318212 0.296248 0.288188 0.29191 0.26191 0.309482 0.26084 0.199703 0.191163 0.187183 0.161739 0.292305 0.157287 0.142674 0.13716 0.110344 0.103269 0.0206407
threshold=1.0000000180025095e-35 7644.2500000000009 2021.5000000000002 0.017309616000000003 0 0.017309616000000003 0.0052875415000000004 2.5000000000000004 1897.0000000000002 5402.0000000000009 4211.7500000000009 1984.5000000000002 1 1156.0000000000002 4314.0000000000009 1.0000000180025095e-35 1.5000000000000002 2885.0000000000005 0.068868571000000003 2005.5000000000002 0.058974909000000013 4.5000000000000009 5.5000000000000009 0.054811231500000009 3.5000000000000004 42.293294135000004 42.280822705000013 2419.0000000000005 2005.5000000000002 42.332686095000007 0.055722447000000008 3085.5000000000005 42.293619785000011 2016.5000000000002 42.336259235000007
decision_type=10 10 10 10 9 10 8 10 10 10 10 10 9 10 10 10 10 10 10 8 10 10 2 10 2 2 2 10 10 2 10 10 2 10 2
left_child=1 5 3 -2 17 6 -1 8 11 24 18 23 19 -14 15 -15 26 21 -11 -10 27 22 -5 -6 -9 -19 -17 -21 -29 -26 -16 -22 -28 34 -13
right_child=2 -3 -4 4 7 -7 -8 9 12 10 -12 33 13 14 30 16 -18 25 -20 20 31 -23 -24 -25 29 -27 32 28 -30 -31 -32 -33 -34 -35 -36
leaf_value=0.01307512342435075 0.0039638400563727257 0.00064037064872682098 0.0036300219167527312 -0.0013457821105839684 -0.0031841221448177331 0.014621593889010989 0.0055352414469234642 0.00083197000687225506 -0.0023012851432968788 -0.0092841025860980145 -0.0017161725396450994 -0.0029080692119896408 0.0020591731090098615 0.00064076104526247942 0.001996746358262109 -0.00050651523217215739 -0.0065833113635224948 0.00046279425111909702 -0.0041777913621626793 0.00034422652093780927 -0.001865570202935487 0.0047552075589607865 0.0029685637761140242 -0.0078899194695457656 -0.00089046619087457647 -0.0033702535807554209 -0.0043384731603631132 0.0057661688144435173 0.001031166883930564 -0.0036710714884490396 -0.0012789849218513283 0.0011804652126738801 -0.0018583727715803045 0.00039620149082371164 -0.0014345736940925813
leaf_weight=23 22 24 36 29 25 22 31 25 25 23 28 20 23 29 27 37 27 26 23 23 29 20 29 21 39 20 35 23 24 35 20 23 34 20 21
leaf_count=23 22 24 36 29 25 22 31 25 25 23 28 20 23 29 27 37 27 26 23 23 29 20 29 21 39 20 35 23 24 35 20 23 34 20 21
internal_value=6.06657e-05 0.00834888 -0.000933598 -0.00114194 -0.00129027 0.0107432 0.00892601 -0.00164452 -0.00119678 -0.00298276 -0.00497139 -0.0031544 -0.000637252 -0.00134615 -0.00179303 -0.00248825 -0.00317021 0.000668614 -0.00687416 0.000537717 0.00117718 0.00188029 0.000825143 -0.00545458 -0.00146146 -0.00124 -0.00224744 0.00242857 0.00342015 -0.00223703 0.000605213 -0.000521433 -0.0031604 -0.00135984 -0.00220548
internal_weight=941 100 841 805 783 76 54 659 486 173 74 107 379 232 209 162 133 124 46 147 122 78 58 46 99 46 106 70 47 74 47 52 69 61 41
internal_count=941 100 841 805 783 76 54 659 486 173 74 107 379 232 209 162 133 124 46 147 122 78 58 46 99 46 106 70 47 74 47 52 69 61 41
cat_boundaries=0 1 2
cat_threshold=270336 17438720
is_linear=0
shrinkage=0.03


Tree=9
num_leaves=37
num_cat=2
split_feature=15 13 3 23 24 20 24 13 8 22 5 23 6 7 5 6 7 12 6 5 5 7 24 24 18 7 5 7 17 5 13 24 1 13 22 13
split_gain=6.83896 2.24091 0.735483 0.783027 0.7335 0.457521 0.418267 0.413993 0.488469 0.398254 0.378347 0.377227 0.313462 0.532167 0.277235 0.26796 0.244417 0.230692 0.2115 0.201964 0.260392 0.180849 0.234055 0.247787 0.246868 0.172046 0.167223 0.161479 0.156947 0.155035 0.136802 0.129677 0.122932 0.10886 0.103901 0.077375
threshold=1.0000000180025095e-35 7644.2500000000009 0 0.041188880500000004 0.030439967000000002 2.5000000000000004 0.06962979250000001 1906.0000000000002 1 0.0052875415000000004 42.30389502500001 0.074254257000000018 1905.5000000000002 1995.5000000000002 42.331377175000007 1912.5000000000002 2017.5000000000002 3145.0000000000005 1907.5000000000002 42.377516425000003 42.381137725000009 2002.5000000000002 0.061591777500000007 0.067334571500000009 10.500000000000002 2012.5000000000002 42.284641550000011 1988.5000000000002 1.5000000000000002 42.289950100000006 3600.0000000000005 0.064480049000000025 7.5000000000000009 3268.0000000000005 0.054609577500000006 3044.5000000000005
decision_type=10 10 9 10 8 10 10 10 9 10 2 10 10 10 2 10 8 10 10 2 2 10 10 10 10 10 2 10 10 2 10 10 2 10 10 10
left_child=1 4 3 -2 9 11 26 14 10 -1 18 19 13 35 27 33 32 -13 -9 21 -21 22 -5 -24 -25 -23 31 29 -18 -4 -14 -7 -10 -8 -16 -12
right_child=2 -3 7 5 -6 6 15 8 16 -11 12 17 30 -15 34 -17 28 -19 -20 20 -22 25 23 24 -26 -27 -28 -29 -30 -31 -32 -33 -34 -35 -36 -37
leaf_value=0.010636296443907277 0.0052653012128546835 -0.00033351938096949689 -0.0001631418645212596 0.0051169578864684569 0.013916906573135277 -0.00088602235510704976 0.0031837417038955858 0.0010951186818155376 -0.003278455597028369 0.0047724677396139932 -0.0054596820803867142 -0.0041817661368155051 -0.0010487180527660154 -0.0021791824654210359 -0.00071374838692801334 -0.0019567386822944336 -0.0010818373795168903 0.00016054758336395025 -0.0030306330740289844 -0.0027464735747906844 0.0017754099609076299 -0.0017890477837698363 -0.001201596221487437 0.0041845121050386562 6.6908894328993149e-05 0.0017296589710267968 -0.0054706452414393422 -0.00089219815534306694 0.0020004867755674892 0.0031902883061557079 -0.0042552712937218269 -0.0039999586796121934 -0.00041836145818233486 8.6689504927822518e-05 -0.0031637832841952332 -0.0085973750915506776
leaf_weight=20 24 25 21 22 28 30 20 21 31 27 21 20 30 29 34 32 25 23 22 23 21 21 20 34 21 28 20 32 34 29 20 20 24 20 29 28
leaf_count=20 24 25 21 22 28 30 20 21 31 27 21 20 30 29 34 32 25 23 22 23 21 21 20 34 21 28 20 32 34 29 20 20 24 20 29 28
internal_value=7.38428e-05 0.00744465 -0.000823176 0.000121359 0.0100077 -0.000217754 -0.00155414 -0.00166212 -0.00236285 0.00743732 -0.00330931 0.00059986 -0.00431537 -0.00550395 -0.000391902 5.62559e-05 -0.000587843 -0.00190827 -0.00103664 0.00117451 -0.000596808 0.00170876 0.00245292 0.00161443 0.00264161 0.000216021 -0.00318802 0.000755144 0.000698154 0.00180627 -0.00238963 -0.0021856 -0.00206017 0.0016751 -0.00187335 -0.00738874
internal_weight=929 100 829 399 75 375 142 430 285 47 171 233 128 78 145 72 114 43 43 190 44 146 97 75 55 49 70 82 59 50 50 50 55 40 63 49
internal_count=929 100 829 399 75 375 142 430 285 47 171 233 128 78 145 72 114 43 43 190 44 146 97 75 55 49 70 82 59 50 50 50 55 40 63 49
cat_boundaries=0 1 2
cat_threshold=19309056 1
is_linear=0
shrinkage=0.03


Tree=10
num_leaves=37
num_cat=1
split_feature=23 7 7 3 13 6 6 13 14 14 6 13 4 4 5 15 1 22 1 24 23 7 12 5 13 4 22 23 5 12 5 12 4 4 4 13
split_gain=7.31256 1.0845 0.757091 0.685188 0.676202 0.583137 0.473387 0.428808 0.377771 0.654177 0.449361 0.360595 0.318796 0.309611 0.300184 0.325724 0.297405 0.257855 0.256532 0.240398 0.250687 0.22333 0.218237 0.186067 0.171983 0.155992 0.149228 0.14767 0.142886 0.174705 0.100145 0.0942902 0.0823075 0.0436669 0.0291712 0.0279666
threshold=0.023898170500000003 2016.5000000000002 2018.5000000000002 0 5702.0000000000009 1899.5000000000002 1884.5000000000002 3044.5000000000005 8.5000000000000018 7.5000000000000009 1962.5000000000002 3782.5000000000005 -71.107415794999994 -71.050748864999989 42.322139005000004 2.5000000000000004 7.5000000000000009 0.043560375000000005 10.500000000000002 0.079816462500000004 0.058216228000000009 1994.5000000000002 3548.5000000000005 42.281580880000007 1917.5000000000002 -71.157754064999992 0.051077802500000012 0.052728267500000002 42.300514265000011 2541.0000000000005 42.371328125000005 4607.0000000000009 -71.082340249999987 -71.143585714999986 -71.075899674999988 2016.8000000000002
decision_type=10 8 10 9 10 8 10 10 10 8 10 10 2 2 2 8 2 10 2 10 10 10 10 2 10 2 10 10 2 10 2 10 2 2 2 10
left_child=1 4 3 6 -1 7 -2 17 9 10 11 12 25 24 32 -16 -10 -5 19 20 22 -19 23 -8 -14 26 -7 -24 29 -27 34 -26 -4 -31 -21 -30
right_child=2 -3 14 5 -6 8 18 -9 16 -11 -12 -13 13 -15 15 -17 -18 21 -20 30 -22 -23 27 -25 31 28 -28 -29 35 33 -32 -33 -34 -35 -36 -37
leaf_value=0.0075518507711016206 0.0032041993966375137 0.0044395398627966641 0.0010788119230520626 -0.00014697370947235159 0.015408694951541044 0.0019637435328747543 0.00070280235641720617 -0.0070582880705801973 -0.0015616081218020274 0.0037363792222458868 -0.0045174528051699914 -0.0045982675300911069 0.00339898872454169 -0.002472543700344183 0.00065645642811432473 0.0055898546208985721 -0.0064897414862311311 -0.0052357294742722766 -0.0034993314336646685 -0.0011690052268518642 0.0036565560930069876 -0.0016388535702135413 0.0032465595634573181 -0.0030663118189057474 -0.001078547520030822 -0.0030934446933679281 -0.0015721525967290456 -2.3759107737402832e-05 -0.0024204787899824703 -0.0011047733139813592 -0.0026452420418023722 0.0014682233832510453 -0.0015193825085381312 0.00064599583872818739 0.0003991302950972957 -0.0042624931409955026
leaf_weight=25 37 39 22 26 21 20 21 26 25 24 34 21 28 21 23 25 20 36 21 21 21 29 22 25 20 27 21 27 21 22 32 34 20 28 20 20
leaf_count=25 37 39 22 26 21 20 21 26 25 24 34 21 28 21 23 25 20 36 21 21 21 29 22 25 20 27 21 27 21 22 32 34 20 28 20 20
internal_value=-4.25703e-05 0.00828978 -0.000894579 -0.00120684 0.0113902 -0.00182232 0.000117567 -0.00370703 -0.00129003 -0.000942556 -0.00130743 -0.000907228 -0.000595023 0.000701087 0.00169227 0.00328757 -0.00384536 -0.00268322 -0.000433305 -7.60104e-05 0.000770832 -0.00368012 0.000101491 -0.00136729 0.00153384 -0.00143377 0.000158363 0.00148011 -0.00198366 -0.00119606 -0.00141391 0.000522515 -0.000164985 -0.0001309 -0.000412771 -0.00339912
internal_weight=925 85 840 750 46 503 247 117 386 341 317 283 262 103 90 48 45 91 210 189 116 65 95 46 82 159 41 49 118 77 73 54 42 50 41 41
internal_count=925 85 840 750 46 503 247 117 386 341 317 283 262 103 90 48 45 91 210 189 116 65 95 46 82 159 41 49 118 77 73 54 42 50 41 41
cat_boundaries=0 1
cat_threshold=1449984
is_linear=0
shrinkage=0.03


Tree=11
num_leaves=37
num_cat=1
split_feature=24 5 22 12 7 3 4 20 4 24 20 7 4 5 18 4 22 7 22 5 1 5 12 7 14 24 18 22 12 5 22 23 22 18 18 18
split_gain=6.95344 1.20516 1.56092 1.15322 0.97279 0.811786 0.396455 0.394493 0.454246 0.370578 0.440714 0.453097 0.36581 0.339398 0.329535 0.285718 0.279466 0.27887 0.26327 0.261807 0.256473 0.245954 0.240198 0.206452 0.191586 0.193383 0.18136 0.189885 0.181058 0.162783 0.125137 0.114987 0.114597 0.0910981 0.0848669 0.0729482
threshold=0.026307502500000003 42.324715160000004 0.0052875415000000004 1521.0000000000002 2019.5000000000002 0 -71.080134414999989 2.5000000000000004 -71.113486974999987 0.08204637200000002 2.5000000000000004 2001.5000000000002 -71.100842584999981 42.341044550000007 9.5000000000000018 -71.128727839999996 0.073058764000000012 1983.5000000000002 0.070298235000000014 42.319331525000003 4.5000000000000009 42.303080230000006 3159.0000000000005 1983.5000000000002 3.5000000000000004 0.063222085000000011 10.500000000000002 0.053249153500000007 3667.5000000000005 42.33939916500001 0.053432241000000005 0.044588141500000004 0.054446772500000004 14.500000000000002 8.5000000000000018 8.5000000000000018
decision_type=10 2 8 10 10 9 2 8 2 10 10 10 2 2 10 2 10 10 10 2 2 2 10 10 8 10 10 10 10 2 10 10 10 10 10 8
left_child=1 -1 -3 -2 5 9 7 12 28 10 14 26 22 35 15 -5 21 18 20 -19 -8 33 23 -7 25 -17 27 -12 30 -21 -9 -24 -16 -11 -22 -6
right_child=3 2 -4 4 13 6 17 8 -10 16 11 -13 -14 -15 32 24 -18 19 -20 29 34 -23 31 -25 -26 -27 -28 -29 -30 -31 -32 -33 -34 -35 -36 -37
leaf_value=0.012809272594749926 0.0061608552640037874 0.010873551648482679 0.00077125291601987556 -0.0006893634770742871 -4.8921138435742187e-05 0.0020920044376647896 -0.0060065732826478776 -0.0010578462845929292 -0.005892438909970224 -0.0023785506321915557 -0.0015703127930021803 0.0024511487062251116 0.0027556547820755182 0.0055436748399266171 -0.0018001157830967087 0.0039807533216662709 0.00055087355865366956 -0.0049522595639739713 -0.00757034397800453 0.00033756445328305876 -0.003334099279849657 -0.0044476569537073374 -0.0042145825520327144 -0.00174531951263223 0.0050397160631837322 0.00029924747421695243 -0.00033371457718312739 -0.0056598904226640503 -5.3447640733793373e-05 -0.0027738598299523196 -0.0041697459698965154 -0.0012713920716196298 0.0011145939198987825 0.00043228448501655032 -0.00056898253038525578 0.0021348633705120948
leaf_weight=31 20 24 31 21 28 27 23 22 29 20 22 22 27 20 28 23 36 20 20 34 20 35 21 22 31 28 24 20 39 26 26 29 20 20 20 26
leaf_count=31 20 24 31 21 28 27 23 22 29 20 22 22 27 20 28 23 36 20 20 34 20 35 21 22 31 28 24 20 39 26 26 29 20 20 20 26
internal_value=4.18158e-05 0.00811972 0.00529498 -0.000785031 -0.000959824 -0.00128213 -0.00217133 -0.00144484 -0.00269936 -0.000182886 0.000477429 -0.00120159 -0.00027772 0.00230186 0.0014574 0.00240693 -0.00161254 -0.00336693 -0.00458452 -0.00206268 -0.00353316 -0.00264457 -0.00112429 0.000368676 0.00319864 0.00200416 -0.00243758 -0.00360407 -0.00158013 -0.00103409 -0.00279416 -0.00256593 -0.000587692 -0.000996868 -0.00199914 0.00102223
internal_weight=935 86 55 849 829 755 405 242 116 350 239 88 126 74 151 103 111 163 83 80 63 75 99 49 82 51 66 42 87 60 48 50 48 40 40 54
internal_count=935 86 55 849 829 755 405 242 116 350 239 88 126 74 151 103 111 163 83 80 63 75 99 49 82 51 66 42 87 60 48 50 48 40 40 54
cat_boundaries=0 1
cat_threshold=18264064
is_linear=0
shrinkage=0.03


Tree=12
num_leaves=36
num_cat=3
split_feature=14 13 23 22 3 23 7 13 7 6 7 4 18 12 22 19 13 14 6 17 13 22 22 22 12 4 14 13 6 15 23 6 14 4 19
split_gain=5.19329 2.07994 0.933117 1.04504 0.679007 0.8522 0.371993 0.470053 0.327374 0.3096 0.31261 0.294593 0.217912 0.18902 0.192318 0.18299 0.180997 0.281861 0.17777 0.167172 0.423152 0.255572 0.370451 0.205918 0.173202 0.15674 0.149416 0.1292 0.128386 0.0926047 0.0812349 0.0717348 0.0598996 0.0563582 0.0424236
threshold=1.0000000180025095e-35 7644.2500000000009 0.021340493500000005 0.0052875415000000004 0 0.043239426500000004 2019.5000000000002 3136.3000000000006 2018.5000000000002 1897.0000000000002 1984.5000000000002 -71.134976419999973 12.500000000000002 5317.5000000000009 0.061955548500000006 1 2110.4000000000005 3.5000000000000004 1907.5000000000002 1.5000000000000002 2132.5000000000005 0.064093637500000009 0.050009593500000012 0.058347618500000011 3439.0000000000005 -71.091704829999983 5.5000000000000009 1284.0000000000002 1889.5000000000002 1.5000000000000002 0.048417478500000007 1929.5000000000002 8.5000000000000018 -71.103153239999983 2
decision_type=10 10 10 8 9 10 10 10 10 10 10 2 10 10 10 9 10 10 10 10 10 10 10 10 10 2 10 10 10 10 10 10 10 2 9
left_child=1 2 3 -1 5 -2 7 9 19 10 -6 30 -9 -14 25 16 17 27 -18 21 -21 22 -7 -22 29 -15 -25 -13 -12 31 -11 -24 -28 -17 -8
right_child=4 -3 -4 -5 6 8 34 12 -10 11 28 15 13 14 -16 33 18 -19 -20 20 23 -23 24 26 -26 -27 32 -29 -30 -31 -32 -33 -34 -35 -36
leaf_value=0.010747793060120032 0.005168455803991649 -0.001394705828570295 0.013174505061630544 0.0018795926951699789 -0.0046945136928787596 0.0022290738875215704 0.0021538498532027005 -0.0058496134669985623 0.0023807238099666744 -0.0039579960624022137 0.00070899266241626299 0.0014935314889740327 -6.7466430898223604e-05 -0.0036263713388788427 -0.0049609535746276377 -0.0026842487449555293 -0.0026409559469204396 0.0037601662562228733 0.0009448695357888937 -0.0052431072587413446 -0.002310512463143823 0.0024615239986980502 -0.00026997153549298392 0.0025082813549254621 0.00082161956972887974 4.1114981951458113e-05 0.00033654605198535137 -0.0014190274521780129 -0.0025090131465264637 -0.003778423062809135 -0.0015415370677548804 -0.0025783125255838964 -0.0017299716187907114 -0.00047773827133434156 0.00021148903628012962
leaf_weight=22 28 23 28 26 38 32 20 25 38 20 21 28 20 21 35 22 24 29 24 20 39 32 25 20 22 20 31 25 22 22 37 23 20 20 20
leaf_count=22 28 23 28 26 38 32 20 25 38 20 21 28 20 21 35 22 24 29 24 20 39 32 25 20 22 20 31 25 22 22 37 23 20 20 20
internal_value=9.26856e-06 0.00646536 0.00883128 0.00608058 -0.000774249 0.000234728 -0.00150039 -0.00178903 -0.000199012 -0.00116348 -0.00274629 -0.000594113 -0.003369 -0.00266936 -0.0033443 2.91925e-05 0.000586416 0.00143642 -0.00086535 -0.000548876 -0.00133902 0.000113914 -0.000506766 -0.000588347 -0.0014721 -0.00187897 0.000376583 0.000118846 -0.000957033 -0.0021944 -0.00244304 -0.0014061 -0.000491537 -0.00166907 0.00121152
internal_weight=922 99 76 48 823 352 471 431 324 310 81 229 121 96 76 172 130 82 48 286 130 156 124 110 92 41 71 53 43 70 57 48 51 42 40
internal_count=922 99 76 48 823 352 471 431 324 310 81 229 121 96 76 172 130 82 48 286 130 156 124 110 92 41 71 53 43 70 57 48 51 42 40
cat_boundaries=0 1 2 3
cat_threshold=2531840 4 1
is_linear=0
shrinkage=0.03


Tree=13
num_leaves=37
num_cat=1
split_feature=14 13 3 22 22 7 5 4 5 24 7 22 23 14 17 24 24 5 5 4 5 6 24 5 22 22 7 15 22 4 23 22 5 6 15 22
split_gain=5.30927 1.46985 0.521715 0.513934 0.506656 0.485196 0.497352 0.397522 0.381698 0.378448 0.306897 0.237083 0.279359 0.232297 0.209345 0.207872 0.191375 0.210334 0.264169 0.316034 0.189842 0.239118 0.149058 0.169224 0.230775 0.285472 0.169231 0.138664 0.142661 0.136311 0.1223 0.11849 0.136112 0.101425 0.0931252 0.0714564
threshold=1.0000000180025095e-35 13927.000000000002 0 0.043391950000000006 0.00066282600000000015 2017.5000000000002 42.30389502500001 -71.134976419999973 42.33939916500001 0.039327926500000006 1998.5000000000002 0.063827892500000025 0.063919562000000013 5.5000000000000009 1.5000000000000002 0.048723664500000007 0.055358553500000005 42.319798815000006 42.310529905000003 -71.065776599999978 42.278468200000006 1949.0000000000002 0.082755854500000017 42.378746580000005 0.059163887500000005 0.050517360500000004 2013.5000000000002 3.5000000000000004 0.057427289500000013 -71.154840769999979 0.063503882500000011 0.073472594500000016 42.297724875000007 1897.0000000000002 1.5000000000000002 0.052113373000000011
decision_type=10 8 9 10 8 10 2 2 2 10 8 10 10 10 10 10 10 2 2 2 2 10 10 2 10 10 8 10 10 2 10 10 2 10 10 10
left_child=1 4 3 -2 -1 6 7 -4 -6 -8 -11 22 -13 20 33 -16 -17 18 -18 -20 21 -9 23 24 25 -5 -27 28 -7 -28 -15 -14 -33 -12 -35 -22
right_child=2 -3 5 11 8 27 9 13 -10 10 14 12 31 30 15 16 17 -19 19 -21 35 -23 -24 -25 -26 26 29 -29 -30 -31 -32 32 -34 34 -36 -37
leaf_value=0.012717738341201434 0.0040807898963404502 0.00039499257535984114 -0.0034846487903798166 0.00070211359601029578 0.0097084665857255451 0.0016852898483809371 0.00046194849368047844 -0.0016780403955537525 0.004261206378196848 -0.00019829914629967374 -0.0033229869085230996 0.0040069780693474145 -0.0013977947312274149 -0.0032383338874205944 -0.0069162630343011441 -0.00081642766616174154 -0.0056779729095952853 -0.0059832244067053713 0.0011799409759363957 -0.0040439152557935039 0.00097158366015979221 0.0022718408932401375 -0.0028710120388617116 0.0019934373547915709 0.0012632310673112181 -0.0047911044774050617 -0.0033488604419731668 0.002913788830462311 -0.0013280501471637117 -6.7516855734328797e-05 -0.00010489980748388916 -0.00051732067261701052 0.0028396448234395523 0.00016107887998223304 -0.0025040121246939118 0.0034236410887052231
leaf_weight=21 27 26 32 33 23 25 33 36 28 32 34 21 27 21 20 20 20 34 20 20 20 21 26 21 34 22 20 20 30 25 23 22 20 24 22 25
leaf_count=21 27 26 32 33 23 25 33 36 28 32 34 21 27 21 20 20 20 34 20 20 20 21 26 21 34 22 20 20 30 25 23 22 20 24 22 25
internal_value=-3.1542e-05 0.00653569 -0.000813882 0.000204394 0.00871738 -0.00136187 -0.001754 -0.000510857 0.00685727 -0.00254246 -0.00294572 -0.000187883 0.00106318 0.000160204 -0.00335372 -0.00408282 -0.0035299 -0.00409257 -0.00294067 -0.00146691 0.000944766 -0.000208741 -0.000812383 -0.000450874 -0.000845866 -0.00156837 -0.00268054 0.000839968 4.72854e-05 -0.00156699 -0.00163913 0.000122799 0.0011101 -0.00209716 -0.00113969 0.00237865
internal_weight=928 98 830 298 72 532 457 178 51 279 246 271 90 146 214 134 114 94 60 40 102 57 181 155 134 100 67 75 55 45 44 69 42 80 46 45
internal_count=928 98 830 298 72 532 457 178 51 279 246 271 90 146 214 134 114 94 60 40 102 57 181 155 134 100 67 75 55 45 44 69 42 80 46 45
cat_boundaries=0 1
cat_threshold=2498560
is_linear=0
shrinkage=0.03


Tree=14
num_leaves=35
num_cat=1
split_feature=23 13 7 7 1 18 13 3 6 15 5 20 7 5 22 1 5 5 15 6 4 12 22 1 1 23 4 5 5 12 14 4 12 5
split_gain=5.45167 1.52918 0.896202 0.887062 0.757975 1.2935 0.74889 0.725794 0.453251 0.533669 0.323795 0.297946 0.334836 0.29115 0.310854 0.277227 0.261378 0.40143 0.514113 0.298589 0.243834 0.237924 0.187194 0.176303 0.171824 0.217767 0.160748 0.172395 0.154697 0.144184 0.125107 0.102824 0.0867046 0.0817762
threshold=0.023898170500000003 938.00000000000011 2010.5000000000002 2018.5000000000002 8.5000000000000018 17.500000000000004 3344.0000000000005 0 1899.5000000000002 2.5000000000000004 42.349431665000004 1.5000000000000002 1999.5000000000002 42.30389502500001 0.046945551500000009 6.5000000000000009 42.293294135000004 42.336684665000007 2.5000000000000004 1907.5000000000002 -71.106929034999993 4009.0000000000005 0.054970896500000012 4.5000000000000009 5.5000000000000009 0.05191742500000001 -71.140198289999987 42.28379149500001 42.281580880000007 5174.0000000000009 3.5000000000000004 -71.078766909999985 2752.0000000000005 42.366502495000013
decision_type=10 10 8 10 2 8 10 9 10 10 2 10 10 2 10 2 2 2 10 10 2 10 10 2 2 10 2 2 2 10 8 2 10 2
left_child=2 -2 -1 4 7 16 -4 11 15 20 31 12 -3 -11 -15 30 26 18 19 -18 21 22 32 -13 25 -22 -6 -28 -24 -16 -9 -5 -10 -19
right_child=1 3 6 10 5 -7 -8 8 9 13 -12 23 -14 14 29 -17 17 33 -20 -21 24 -23 28 -25 -26 -27 27 -29 -30 -31 -32 -33 -34 -35
leaf_value=0.011059609168373487 0.0068385698735390016 0.005195539152895611 0.0086923968783495092 0.0020351881919533858 -0.0023659684115017836 -0.0090837568538979837 0.0012427655865181366 -0.0028443267763308853 0.00096962685054618753 -0.0003208385726126532 0.0050204987136054447 -0.002117753216404129 0.00050681241143208278 -0.00080384337292343838 -0.0032266838778741659 -0.00088981907656748903 -0.0037206303209066389 0.00046457590624833338 -0.0012023962890221314 -0.0089037065899797846 0.00011615988266255173 0.0014780262916215827 -0.0011827215391402954 0.0015314838856619853 -0.00037024075243314127 0.0042207923769352158 -0.0010231157692356242 0.0026048849549676688 -0.0044003667202196081 -0.0068639219795232232 -0.0061336677986643428 -0.00034517606703697568 -0.0014322720502968878 -0.0017949943009509957
leaf_weight=33 22 30 21 30 25 25 28 22 30 35 21 21 25 23 23 27 24 25 32 20 20 34 33 25 30 27 26 20 23 22 26 34 23 32
leaf_count=33 22 30 21 30 25 25 28 22 30 35 21 21 25 23 23 27 24 25 32 20 20 34 33 25 30 27 26 20 23 22 26 34 23 32
internal_value=-6.45835e-05 -0.000792569 0.00726867 -0.00100722 -0.00134614 -0.00277149 0.00454546 -0.000687784 -0.00125027 -0.000788319 0.00187745 0.00149524 0.00311141 -0.00255916 -0.0036899 -0.00336768 -0.00195739 -0.00273753 -0.00415159 -0.00622208 4.85863e-05 -0.000683379 -0.00136489 -0.000144085 0.00139928 0.00251295 -0.000478288 0.000576137 -0.00255827 -0.00511545 -0.00471487 0.000784764 -7.99277e-05 -0.000813032
internal_weight=917 835 82 813 728 229 49 499 398 323 85 101 55 103 68 75 204 133 76 44 220 143 109 46 77 47 71 46 56 45 48 64 53 57
internal_count=917 835 82 813 728 229 49 499 398 323 85 101 55 103 68 75 204 133 76 44 220 143 109 46 77 47 71 46 56 45 48 64 53 57
cat_boundaries=0 1
cat_threshold=270848
is_linear=0
shrinkage=0.03


Tree=15
num_leaves=35
num_cat=2
split_feature=23 1 12 14 6 7 3 6 18 1 6 5 13 16 13 18 6 15 5 24 1 2 12 18 22 15 23 5 22 13 12 12 22 13
split_gain=4.83028 1.09607 0.840797 2.02584 0.686772 0.555294 0.546243 0.394 0.518795 0.504243 0.363928 0.310962 0.244019 0.235891 0.22619 0.215154 0.200794 0.190878 0.179892 0.169187 0.155884 0.132988 0.264444 0.297928 0.214241 0.126827 0.175675 0.113344 0.0943994 0.0913175 0.0771203 0.149283 0.105994 0.0260866
threshold=0.023898170500000003 8.5000000000000018 7689.5000000000009 11.500000000000002 1920.5000000000002 2018.5000000000002 0 1897.0000000000002 13.500000000000002 4.5000000000000009 1978.0000000000002 42.30389502500001 3712.0000000000005 1.0000000180025095e-35 1906.0000000000002 7.5000000000000009 1924.5000000000002 2.5000000000000004 42.330881975000004 0.061591777500000007 9.5000000000000018 1 2279.0000000000005 9.5000000000000018 0.052955030000000007 2.5000000000000004 0.056991766500000006 42.281580880000007 0.054609577500000006 1745.4000000000003 2901.5000000000005 3667.5000000000005 0.056298209000000009 3160.5000000000005
decision_type=10 2 10 8 8 10 9 10 10 2 10 2 10 10 10 10 10 10 2 10 2 9 10 10 10 10 10 2 10 10 10 10 10 10
left_child=1 4 3 5 -1 6 16 9 10 -8 13 -10 33 21 19 -11 25 29 -19 -15 -17 30 -23 28 -25 26 -2 -21 -24 -7 32 -32 -9 -13
right_child=2 -3 -4 -5 -6 17 7 8 11 15 -12 12 -14 14 -16 20 -18 18 -20 27 -22 22 23 24 -26 -27 -28 -29 -30 -31 31 -33 -34 -35
leaf_value=0.0064715522179113966 0.00091470118340415251 0.0020904975966550411 -0.0064414332319442606 0.0079130881469696764 0.013798650620239121 0.001418396898585817 -0.0058861017290100055 0.00018292642581010501 -0.00048132970639680689 -0.0039410749590024349 -0.0034915300560268486 -0.0029791227478667029 -0.0056530994638750278 0.0017380154528655112 -0.0032041456534735563 0.00080889171582054005 -0.0015549242327688262 0.00087022139591031833 0.0048545805361407636 0.0004032619564012358 -0.0024541503097862006 0.0041470554005354644 0.00017563678527453291 0.0039134670951618596 9.4457239444766729e-05 1.9995897839015179e-07 0.0042051995305631027 -0.0024946332121035084 -0.0025208357296203476 -0.0013180379981973342 0.0023754717179170774 -0.00084339826313011782 -0.0023818333928741797 -0.0013587269051508468
leaf_weight=34 35 29 21 24 20 22 36 27 36 23 32 20 36 23 37 32 23 20 21 20 21 20 21 25 27 32 25 29 25 20 20 33 30 21
leaf_count=34 35 29 21 24 20 22 36 27 36 23 32 20 36 23 37 32 23 20 21 20 21 20 21 25 27 32 25 29 25 20 20 33 30 21
internal_value=3.43605e-05 0.00689275 -0.000653156 -0.000496491 0.00938684 -0.000760984 -0.00103307 -0.00138584 -0.00103264 -0.00300592 -0.000484693 -0.002802 -0.0038669 -0.000189692 -0.00133105 -0.0015829 0.000832959 0.00154785 0.00297799 -0.000337783 -0.000505516 0.000359388 0.00100624 0.000431487 0.00196972 0.0015298 0.0023322 -0.00132741 -0.00131229 0.000114984 -0.000392608 0.000392766 -0.00118474 -0.00220128
internal_weight=920 83 837 816 54 792 709 594 482 112 369 113 77 337 109 76 115 83 41 72 53 228 118 98 52 92 60 49 46 42 110 53 57 41
internal_count=920 83 837 816 54 792 709 594 482 112 369 113 77 337 109 76 115 83 41 72 53 228 118 98 52 92 60 49 46 42 110 53 57 41
cat_boundaries=0 1 2
cat_threshold=270336 452
is_linear=0
shrinkage=0.03


Tree=16
num_leaves=36
num_cat=2
split_feature=24 13 22 1 7 1 13 3 15 5 13 23 20 20 2 5 5 5 22 18 24 12 22 18 5 6 24 5 24 5 22 12 24 12 13
split_gain=4.784 1.33753 0.995834 1.32589 0.778579 0.597462 0.919298 0.656374 0.474636 0.37955 0.54917 0.415305 0.346017 0.607192 0.319178 0.256573 0.226266 0.288082 0.200271 0.308093 0.183999 0.183515 0.156568 0.140676 0.105764 0.102725 0.102785 0.0872938 0.0995157 0.0849099 0.0540139 0.0565535 0.0523269 0.0314814 0.022816
threshold=0.026307502500000003 938.00000000000011 0.0052875415000000004 8.5000000000000018 2018.5000000000002 7.5000000000000009 4141.0500000000011 0 3.5000000000000004 42.30389502500001 2164.0000000000005 0.047189868000000003 2.5000000000000004 1.5000000000000002 1 42.332456450000002 42.335051125000007 42.293294135000004 0.06298646350000002 11.500000000000002 0.079466861000000014 3548.5000000000005 0.061955548500000006 9.5000000000000018 42.376265260000004 1933.5000000000002 0.065338155500000009 42.288533520000009 0.080975481000000016 42.348890130000008 0.054908298500000001 3453.5000000000005 0.083020197000000004 5379.0000000000009 1745.4000000000003
decision_type=10 10 8 2 10 2 10 9 8 2 10 10 10 8 9 2 2 2 10 8 10 10 10 10 2 10 10 2 10 2 10 10 10 10 10
left_child=2 -2 -1 -4 5 7 14 12 27 11 15 -9 13 20 16 -11 17 34 19 -12 24 25 29 -23 -3 26 -13 -6 -29 30 31 -16 -25 -21 -7
right_child=1 4 3 -5 8 6 -8 9 -10 10 18 21 -14 -15 22 -17 -18 -19 -20 33 -22 23 -24 32 -26 -27 -28 28 -30 -31 -32 -33 -34 -35 -36
leaf_value=0.0103162104729563 0.0065360803359552563 0.0036646361116852077 0.0077695494829376627 -0.0019179222580384123 -0.0009485713885673744 -0.0012452920872185911 -0.0076954687960445883 0.0033825051505118608 0.0058044963981956242 0.0022601378126329598 -0.0051892870430160186 -0.0043656114009874214 -0.0015942027854422727 0.0061950697121210393 0.0010515030892565846 -0.0016741976753941604 -0.00096415185874017565 -0.0057518839657020107 -0.0061100839823484418 -0.00023831241697605169 -0.0008485020073765719 0.002300637983717024 -0.0021993107327143661 -0.0012434440965739051 0.00068272330856416368 -0.0004823235904495959 -0.0012697001403596784 -0.00011953987991032393 0.0026417824870906769 -0.0013951035428406862 0.0015922247132079469 -0.0008750236459309235 0.00063788872877401962 -0.0018965051394082945 -0.0027620420528745109
leaf_weight=38 22 20 30 21 21 20 24 24 20 25 28 20 26 25 23 34 35 38 23 20 32 20 39 36 23 27 20 22 24 28 26 31 20 21 21
leaf_count=38 22 20 30 21 21 20 24 24 20 25 28 20 26 25 23 34 35 38 23 20 32 20 39 36 23 27 20 22 24 28 26 31 20 21 21
internal_value=0.000104741 -0.00060047 0.00667771 0.00382042 -0.000800641 -0.00112116 -0.0021907 -0.000431245 0.00186728 -0.00114065 -0.00226113 -0.00018799 0.00133847 0.00224172 -0.00165708 2.77774e-06 -0.00276759 -0.00389049 -0.00369741 -0.00281739 0.000859765 -0.000806562 -0.00055826 0.000203917 0.00212143 -0.00193892 -0.00288638 0.00062392 0.00134671 -2.13411e-06 0.00049661 -5.0267e-05 -0.000572136 -0.00111256 -0.00206943
internal_weight=927 838 89 51 816 729 285 444 87 318 151 167 126 100 261 59 114 79 92 69 75 143 147 76 43 67 40 67 46 108 80 54 56 41 41
internal_count=927 838 89 51 816 729 285 444 87 318 151 167 126 100 261 59 114 79 92 69 75 143 147 76 43 67 40 67 46 108 80 54 56 41 41
cat_boundaries=0 1 2
cat_threshold=17172992 27712
is_linear=0
shrinkage=0.03


Tree=17
num_leaves=36
num_cat=1
split_feature=22 6 12 14 13 22 2 1 4 6 23 13 12 24 7 13 4 12 12 24 24 14 1 20 5 23 5 1 7 4 12 4 7 5 23
split_gain=3.51192 1.42326 1.34723 1.21348 0.612765 0.769251 0.553749 0.439694 0.490871 0.354241 0.320397 0.286108 0.558665 0.297364 0.277587 0.232444 0.232104 0.23208 0.336825 0.227618 0.216978 0.185653 0.169977 0.160743 0.166177 0.139576 0.18482 0.139023 0.125366 0.106501 0.102519 0.0717358 0.0595802 0.0568076 0.0236522
threshold=0.006902712000000001 1850.5000000000002 8638.5000000000018 1.0000000180025095e-35 3007.2500000000005 0.024652535000000003 0 10.500000000000002 -71.077624004999976 1972.0000000000002 0.05758563550000001 1906.0000000000002 3410.5000000000005 0.061591777500000007 1991.5000000000002 3400.5000000000005 -71.059096834999991 3145.0000000000005 3410.5000000000005 0.074895335000000021 0.086387910000000012 7.5000000000000009 6.5000000000000009 2.5000000000000004 42.375708375000009 0.071939524000000019 42.331633350000011 6.5000000000000009 2001.5000000000002 -71.149212424999988 4340.5000000000009 -71.060618529999985 2014.5000000000002 42.293294135000004 0.053699052000000004
decision_type=8 10 8 10 10 10 9 2 2 10 10 10 10 10 10 10 2 10 10 10 10 10 2 10 2 10 2 2 10 2 10 2 8 2 10
left_child=-1 -2 3 -3 5 -5 17 8 15 10 11 13 -13 32 16 -6 -10 20 -19 -17 23 -21 -14 24 27 26 -12 -7 30 -15 -20 -16 -8 -34 -31
right_child=1 2 -4 4 7 6 9 -9 14 -11 25 12 22 29 31 19 -18 18 28 21 -22 -23 -24 -25 -26 -27 -28 -29 -30 34 -32 -33 33 -35 -36
leaf_value=0.0085623621724080293 0.0068427411288670874 0.0053994681369513272 -0.0080490987261609085 0.0054004400150318224 0.00241123258844018 0.0040425051668924938 -0.00048874938352541479 -0.0054719726648181678 -0.0067691348545253277 -0.004420016887116021 0.002812210226256866 -0.0059818568846094419 0.00030730321110847096 -0.003620462652761489 -0.002446281171242585 -0.0025822393654379994 -0.0023228246028619733 0.0045186159297424767 -0.0010886212702219686 0.0025420805983330037 -0.0024394217481603846 -0.0014060017572981968 -0.0026414854320630961 -0.0016094831473339583 -0.00078800182091072197 -0.0012561634680985107 -0.00075341363204643123 0.00077761269763617865 0.0023717964477171856 -0.00029664572203598385 0.0014121720414608716 -8.9241347019586618e-05 0.00045758801201979313 0.002577506394258567 -0.0017561341146210907
leaf_weight=39 22 29 21 20 24 20 21 29 24 28 35 31 35 23 27 37 21 27 35 21 29 20 34 24 25 22 20 28 27 20 24 20 26 20 20
leaf_count=39 22 29 21 20 24 20 21 29 24 28 35 31 35 23 27 37 21 27 35 21 29 20 34 24 25 22 20 28 27 20 24 20 26 20 20
internal_value=-0.000133762 -0.000524449 -0.000719058 -0.000527818 -0.000744555 -0.000239903 -0.00044548 -0.00208172 -0.00154946 -0.00121021 -0.00094335 -0.0015025 -0.00270107 -0.000566942 -0.00312581 -0.000111112 -0.00478979 0.000650324 0.00165829 -0.000907916 -0.000208381 0.000628565 -0.0011627 0.000476717 0.00117507 0.000724694 0.00152532 0.00219272 0.000718669 -0.00203124 -6.47677e-05 -0.00146604 0.000819559 0.00141452 -0.00105142
internal_weight=928 889 867 846 817 594 574 223 194 335 307 230 100 130 92 102 45 239 113 78 126 41 69 97 73 77 55 48 86 63 59 47 67 46 40
internal_count=928 889 867 846 817 594 574 223 194 335 307 230 100 130 92 102 45 239 113 78 126 41 69 97 73 77 55 48 86 63 59 47 67 46 40
cat_boundaries=0 1
cat_threshold=744
is_linear=0
shrinkage=0.03


Tree=18
num_leaves=36
num_cat=0
split_feature=15 13 4 5 24 5 7 13 4 4 4 4 7 13 24 13 22 12 12 1 22 13 6 23 5 4 4 12 4 4 22 4 12 23 23
split_gain=4.98791 1.09553 0.905463 1.24552 0.45499 0.352727 0.602157 0.344357 0.257821 0.49285 0.257611 0.228667 0.22658 0.204256 0.593277 0.430423 0.241963 0.189644 0.31889 0.224349 0.171916 0.154737 0.263105 0.221851 0.189014 0.153772 0.159736 0.146592 0.122358 0.118045 0.101071 0.0733121 0.0565503 0.0552363 0.0869048
threshold=1.0000000180025095e-35 7644.2500000000009 -71.059760589999982 42.343646775000003 0.028409148000000006 42.30389502500001 2015.5000000000002 3160.5000000000005 -71.05893740499998 -71.077624004999976 -71.092247554999986 -71.133526509999982 1997.5000000000002 1633.0000000000002 0.075772859500000012 1906.0000000000002 0.064552174500000017 3513.0000000000005 2853.0000000000005 8.5000000000000018 0.050702552500000005 1711.0000000000002 1922.5000000000002 0.050946686500000005 42.281106735000009 -71.086629599999981 -71.078364064999974 3222.0000000000005 -71.080134414999989 -71.041724339999988 0.056542192000000005 -71.06659436999999 2364.5000000000005 0.057382384500000008 0.045092285500000009
decision_type=10 10 2 2 10 2 10 10 2 2 2 2 8 10 10 10 10 10 10 2 10 10 10 10 2 2 2 10 2 2 10 2 10 10 10
left_child=1 2 3 -1 -2 11 7 12 9 10 -9 17 -7 14 20 -15 27 18 19 30 -14 24 23 -23 32 -25 -27 -17 -8 -30 -6 -28 -13 34 -29
right_child=4 -3 -4 -5 5 6 28 8 -10 -11 -12 21 13 15 -16 16 -18 -19 -20 -21 -22 22 -24 25 -26 26 31 33 29 -31 -32 -33 -34 -35 -36
leaf_value=0.0094760178034043584 0.0037390714551189118 0.00084333480745553966 0.012866211644230553 -0.00012054686567613056 -0.00037299590111202136 0.0013016567118964823 0.002551012337137633 -0.0042995175176586669 -0.00044673544152275371 -0.0071864127386361354 1.0247745254309847e-05 0.0014715314087187571 0.00064638269205506032 0.0020553710957413865 -0.0071409897931984483 -0.004385817786678672 0.0011253151915628801 0.00086979004431382882 -0.0045627910577884625 0.0014561120774929544 -0.0027272719255616437 0.002771006275434047 -0.0024364454275564639 -0.0017461703865624524 0.004076038362275409 0.0029034220400665487 -0.0014237626479007303 -0.0022601593626213482 -0.00086845128495322281 0.0018059335259022189 -0.0031912484366106442 0.00083655533863098491 -0.00055335907099236337 -0.0029040884674759581 0.00012389303851200061
leaf_weight=30 20 24 25 20 21 27 27 25 22 29 24 30 25 33 20 24 21 34 25 27 28 31 31 33 20 20 23 28 38 23 25 27 20 23 26
leaf_count=30 20 24 25 20 21 27 27 25 22 29 24 30 25 33 20 24 21 34 25 27 28 31 31 33 20 20 23 28 38 23 25 27 20 23 26
internal_value=0.000138396 0.0064683 0.00823351 0.0057103 -0.000623492 -0.000735687 -0.00130451 -0.00185422 -0.00334058 -0.00414081 -0.00223063 -4.73971e-05 -0.00126056 -0.00156834 -0.00286819 -0.000941689 -0.00176249 -0.00104208 -0.00170747 -0.000681179 -0.00115342 0.000513369 9.4052e-06 0.000589093 0.00168442 -8.79297e-05 0.000707396 -0.00236807 0.000909002 0.000152787 -0.00193997 -0.000210721 0.000666607 -0.001691 -0.0011309
internal_weight=929 99 75 50 830 810 443 355 100 78 49 367 255 228 73 155 122 132 98 73 53 235 165 134 70 103 70 101 88 61 46 50 50 77 54
internal_count=929 99 75 50 830 810 443 355 100 78 49 367 255 228 73 155 122 132 98 73 53 235 165 134 70 103 70 101 88 61 46 50 50 77 54
is_linear=0
shrinkage=0.03


Tree=19
num_leaves=38
num_cat=4
split_feature=22 8 1 5 4 4 12 12 22 3 21 4 7 23 1 5 17 22 7 1 24 12 19 23 15 5 5 12 7 14 12 12 22 1 22 4 18
split_gain=4.47339 1.17962 2.77696 1.14239 0.925286 0.791607 0.588671 0.499086 0.591651 0.392 0.30413 0.7486 0.43833 0.26223 0.492956 0.235001 0.219549 0.194284 0.216143 0.161681 0.149542 0.142183 0.307309 0.332075 0.164792 0.133553 0.127968 0.0833794 0.184336 0.0812952 0.0763665 0.162354 0.219956 0.148212 0.063444 0.058398 0.0375178
threshold=0.006902712000000001 0 8.5000000000000018 42.336367005000007 -71.063272134999991 -71.067268604999995 5402.0000000000009 5402.0000000000009 0.024652535000000003 1 2 -71.079717984999988 2001.5000000000002 0.059179859000000008 7.5000000000000009 42.303080230000006 2.5000000000000004 0.063203893000000025 2013.5000000000002 6.5000000000000009 0.092223813500000015 2608.5000000000005 3 0.062347553000000007 1.5000000000000002 42.375708375000009 42.301704410000006 2437.5000000000005 2018.5000000000002 7.5000000000000009 3970.5000000000005 2779.5000000000005 0.054970896500000012 6.5000000000000009 0.062879615000000014 -71.137627269999982 16.500000000000004
decision_type=8 9 2 2 2 2 8 10 10 9 1 2 10 10 2 2 10 10 10 2 10 10 9 10 10 2 2 10 8 10 10 10 10 2 10 2 10
left_child=4 7 5 -4 -1 6 -3 8 -2 16 20 17 19 14 -9 29 21 18 30 -13 27 25 -23 24 -24 -10 -26 -11 -29 -15 31 32 -12 -33 -18 -19 -17
right_child=1 2 3 -5 -6 -7 -8 13 9 10 11 12 -14 15 -16 36 34 35 -20 -21 -22 22 23 -25 26 -27 -28 28 -30 -31 -32 33 -34 -35 -36 -37 -38
leaf_value=0.014157341878329004 0.0043783334716731171 -0.0001646669638077063 0.0015301638198169795 -0.0081909612913362018 0.0048862797445194291 0.010241753388961244 0.0069387015336277811 -0.0013939632769740585 0.0013008960742381928 0.0008116340714817245 0.00050556468626333242 -0.0081354404980083922 -0.0014429165050762916 0.0014685909382321618 -0.0074358908848270126 -0.0039312261451933802 -0.00043198946705420632 -0.00012531211466661521 0.0013713758308949765 -0.0041840734197758139 0.0024283441408936464 -0.0011160663835471495 -0.00058045725131200413 0.0056347340917480837 0.0009589578896494847 -0.0017398899463005365 0.0041298679741365567 0.0008924642763616118 -0.0023071559613498929 -0.0011416521721652575 -0.00030142765010482278 -0.0013809384379003728 -0.0028734642616473137 -0.0048828030631153114 -0.0025157381238585168 0.0021338788642814117 -0.0019660097771607662
leaf_weight=20 21 20 21 21 21 27 21 27 22 35 36 21 30 21 22 20 34 20 23 24 20 31 26 20 27 29 20 27 38 20 28 20 32 26 21 20 22
leaf_count=20 21 20 21 21 21 27 21 27 22 35 36 21 30 21 22 20 34 20 23 24 20 31 26 20 27 29 20 27 38 20 28 20 32 26 21 20 22
internal_value=6.9672e-05 -0.000379932 0.00239194 -0.00340785 0.00963815 0.0063183 0.00355222 -0.000792297 -0.000459491 -0.000627435 -0.00117686 -0.00171448 -0.00431989 -0.00247741 -0.00420113 -0.0014219 0.000364228 -0.000828166 -0.00128182 -0.00616482 0.000116214 0.000899119 0.00144417 0.00230037 0.00132305 -0.000428386 0.00236621 -0.000354171 -0.000984698 0.000198436 -0.00171815 -0.00206047 -0.00110317 -0.00342203 -0.00125832 0.00102878 -0.00297149
internal_weight=934 893 110 42 41 68 41 783 651 630 400 280 75 132 49 83 230 205 165 45 120 175 124 93 73 51 47 100 65 41 142 114 68 46 55 40 42
internal_count=934 893 110 42 41 68 41 783 651 630 400 280 75 132 49 83 230 205 165 45 120 175 124 93 73 51 47 100 65 41 142 114 68 46 55 40 42
cat_boundaries=0 1 2 3 4
cat_threshold=9 929792 8 1
is_linear=0
shrinkage=0.03


Tree=20
num_leaves=35
num_cat=1
split_feature=24 13 1 12 7 1 3 14 6 12 12 15 23 24 17 6 20 6 5 5 12 17 7 5 23 1 5 18 7 1 12 4 4 23
split_gain=3.78852 1.20894 0.976577 0.625348 0.572751 0.443581 0.413587 0.370946 0.299451 0.302423 0.478363 0.292052 0.262985 0.225102 0.195294 0.192922 0.232454 0.582251 0.301418 0.28217 0.234884 0.230966 0.181517 0.179573 0.166186 0.160833 0.153612 0.0984889 0.0848324 0.0768353 0.0668873 0.0633691 0.171452 0.0477702
threshold=0.026307502500000003 938.00000000000011 8.5000000000000018 7689.5000000000009 2019.5000000000002 3.5000000000000004 0 8.5000000000000018 1978.0000000000002 3101.0000000000005 3453.5000000000005 2.5000000000000004 0.047338707500000007 0.053664980000000008 1.5000000000000002 1881.0000000000002 2.5000000000000004 1924.5000000000002 42.368524740000005 42.297724875000007 3085.5000000000005 1.5000000000000002 2012.5000000000002 42.31269154000001 0.055859152500000002 3.5000000000000004 42.335839585000009 6.5000000000000009 1998.5000000000002 8.5000000000000018 4485.5000000000009 -71.078684084999978 -71.126702294999987 0.058786239500000004
decision_type=10 10 2 10 10 2 9 10 10 10 10 8 10 10 10 10 10 10 2 2 10 10 8 2 10 2 2 10 10 2 10 2 2 10
left_child=2 -2 5 4 6 -1 7 13 9 12 -11 33 22 -3 -12 -15 18 21 19 28 -20 -18 -8 -16 27 -25 29 -14 31 -27 -23 32 -17 -6
right_child=1 3 -4 -5 11 -7 8 -9 -10 10 14 -13 24 15 23 16 17 -19 20 -21 -22 30 -24 25 -26 26 -28 -29 -30 -31 -32 -33 -34 -35
leaf_value=0.0046579105110839004 0.0063644095196981314 0.0025792670719355583 0.0014854697103146464 -0.0058746933993617332 0.0012534303570698414 0.010264314987386265 -0.00028009447184475987 -0.0030203895099033171 -0.0048842215893091633 -0.0053906543962897128 0.00038405475625768304 0.0041329343863312279 -0.0035187101778056886 -0.0023081596917472777 0.00054605006905538692 0.00018524497747421265 -0.0014806950021663615 -0.0040687871930034213 -0.0026372327980458397 0.0042559711967097144 0.0010707453913697651 0.00070770157755098559 0.0036519986311239856 -0.0005564805248688007 0.00035602986433682065 -0.0027771723866421129 -0.001611376057519331 -0.0009748916470655991 -0.00062655778290578515 -0.0055527916797436776 0.0030933645098348674 3.449573393233798e-05 0.003856782931834459 -0.0007714778344546045
leaf_weight=24 21 30 31 20 20 35 21 36 23 33 39 30 26 31 20 23 28 35 32 28 28 21 20 28 38 20 33 30 25 24 22 21 22 20
leaf_count=24 21 30 31 20 20 35 21 36 23 33 39 30 26 31 20 23 28 35 32 28 28 21 20 28 38 20 33 30 25 24 22 21 22 20
internal_value=4.53097e-05 -0.000578271 0.00586262 -0.00076204 -0.000628219 0.00809939 -0.000875126 -0.000161047 -0.00159167 -0.00139739 -0.00214403 0.00194707 -0.000300086 0.000139662 -0.00146204 -9.93514e-05 0.000148135 -0.00095981 0.000805924 0.00167536 -0.000917657 0.000608009 0.00167928 -0.00203649 -0.00117202 -0.00252892 -0.00322984 -0.00219696 0.000843699 -0.0043809 0.00197084 0.00140165 0.00202504 0.000246854
internal_weight=938 848 90 827 807 59 737 382 355 332 197 70 135 346 164 316 285 106 179 119 60 71 41 125 94 105 77 56 91 44 43 66 45 40
internal_count=938 848 90 827 807 59 737 382 355 332 197 70 135 346 164 316 285 106 179 119 60 71 41 125 94 105 77 56 91 44 43 66 45 40
cat_boundaries=0 1
cat_threshold=18266112
is_linear=0
shrinkage=0.03


Tree=21
num_leaves=38
num_cat=1
split_feature=22 6 12 14 1 7 5 5 5 20 12 21 7 24 12 12 13 22 14 12 7 22 13 12 16 4 14 12 20 1 7 12 24 13 22 13 13
split_gain=3.35012 2.94159 1.31118 1.27181 0.68582 0.434192 0.391416 0.547484 0.359878 0.344366 0.34781 0.310246 0.292318 0.297775 0.274434 0.272314 0.35113 0.264481 0.36068 0.229297 0.211434 0.198715 0.179481 0.162976 0.162787 0.128297 0.180234 0.190345 0.121582 0.109953 0.101304 0.100686 0.0680578 0.0665317 0.0523596 0.0415138 0.0374513
threshold=0.006902712000000001 2021.5000000000002 8041.0000000000009 1.0000000180025095e-35 6.5000000000000009 2021.5000000000002 42.30389502500001 42.322139005000004 42.325957440000003 2.5000000000000004 3760.5000000000005 0 2002.5000000000002 0.045728058000000009 2095.0000000000005 2095.0000000000005 2326.0000000000005 0.057127522500000007 7.5000000000000009 3145.0000000000005 2002.5000000000002 0.050796953000000006 3400.5000000000005 2501.0000000000005 1.0000000180025095e-35 -71.057750169999991 4.5000000000000009 2462.5000000000005 2.5000000000000004 9.5000000000000018 1997.5000000000002 3943.5000000000005 0.068335207000000023 3180.5000000000005 0.056696994500000007 2588.0000000000005 3230.0500000000006
decision_type=8 8 8 10 2 10 2 2 2 10 10 1 10 10 8 10 10 10 10 8 10 10 10 10 10 2 10 10 10 2 10 10 10 10 10 10 10
left_child=4 2 3 -2 -1 6 9 17 -9 14 21 15 13 -13 -5 -10 20 28 33 23 -17 -11 24 -16 35 -15 27 -27 -8 32 34 -14 -12 -19 -23 -21 -34
right_child=1 -3 -4 5 -6 -7 7 8 11 10 29 12 31 25 19 16 -18 18 -20 22 -22 30 -24 -25 -26 26 -28 -29 -30 -31 -32 -33 36 -35 -36 -37 -38
leaf_value=0.0040111283560029486 0.0055295248152688143 0.010147721074197603 -0.0081287451095080811 0.0039729689926441226 0.011884408549998293 0.002511456435812371 -0.00042248165986331345 0.0029547351645305749 -0.0022473170035352398 -8.7898706014339742e-05 0.0023239066079258916 -0.0056246271617710585 0.0011585415952140464 -0.00046751302957803801 0.00055456894562667003 0.0048574350005947051 -0.0011462802942895159 -0.0045824166719934762 -0.001659444576750199 0.0042539526868079387 0.00064394466179822172 -0.0049136631873746717 -0.00054566955879801593 -0.0023982352622745869 -3.541264483439071e-05 -0.0033088686935869708 -0.0044074649743044807 0.00075007070654204918 -0.0033352337251629002 -0.0014582447562133893 -0.0013400841013312206 -0.0014484343503136188 -0.00061612735623898715 -0.0076395460599451327 -0.0026412610098089893 0.0021712746916581756 0.0011374643646247151
leaf_weight=21 29 22 20 20 21 34 32 20 27 25 20 24 29 36 31 23 32 20 26 20 20 26 32 35 20 20 30 20 21 23 20 23 22 20 21 22 20
leaf_count=21 29 22 20 20 21 34 32 20 27 25 20 24 29 36 31 23 32 20 26 20 20 26 32 35 20 20 30 20 21 23 20 23 22 20 21 22 20
internal_value=-4.50521e-05 -0.000441885 -0.000723273 -0.000538157 0.0081326 -0.000760846 -0.000906518 -0.00152281 -0.000842254 -0.000174079 -0.00111058 -0.00111908 -0.00180459 -0.00265862 0.000747865 0.000259727 0.00121413 -0.00323986 -0.0044995 0.000322555 0.00295685 -0.00237854 0.00126865 -0.00102374 0.00219887 -0.00194079 -0.00268121 -0.0013106 -0.00161698 0.000273488 -0.00321939 -1.16539e-07 0.000928855 -0.00626003 -0.00397451 0.00323889 0.000225949
internal_weight=927 885 863 843 42 814 780 423 304 357 177 284 182 130 180 102 75 119 66 160 43 92 94 66 62 106 70 40 53 85 67 52 62 40 47 42 42
internal_count=927 885 863 843 42 814 780 423 304 357 177 284 182 130 180 102 75 119 66 160 43 92 94 66 62 106 70 40 53 85 67 52 62 40 47 42 42
cat_boundaries=0 1
cat_threshold=12
is_linear=0
shrinkage=0.03


Tree=22
num_leaves=38
num_cat=1
split_feature=24 6 12 7 7 13 24 5 15 3 17 5 15 18 7 23 12 5 24 12 18 24 6 6 5 5 23 24 5 5 5 1 24 5 5 16 7
split_gain=3.60506 1.27864 1.59342 0.731416 0.713967 0.417096 0.410077 0.352627 0.338293 0.329876 0.323233 0.288491 0.413478 0.281469 0.173677 0.230614 0.158878 0.158831 0.147787 0.148772 0.330548 0.245998 0.135283 0.166561 0.226136 0.238291 0.238065 0.232397 0.126261 0.20587 0.113152 0.111636 0.105802 0.0991244 0.0814082 0.0653023 0.0470725
threshold=0.026307502500000003 1850.5000000000002 6894.0000000000009 2019.5000000000002 2010.5000000000002 4353.4000000000005 0.039327926500000006 42.342161420000004 3.5000000000000004 0 1.5000000000000002 42.31269154000001 2.5000000000000004 14.500000000000002 1963.0000000000002 0.061116283 4118.0000000000009 42.332048995000001 0.061530687500000007 2957.0000000000005 9.5000000000000018 0.08214848750000002 1964.5000000000002 1897.0000000000002 42.293619785000011 42.285804030000001 0.056414262500000006 0.061591777500000007 42.280182220000007 42.294128265000005 42.335051125000007 6.5000000000000009 0.070012712000000019 42.329697655000011 42.378746580000005 1.0000000180025095e-35 2018.5000000000002
decision_type=8 10 8 10 10 10 10 2 8 9 10 2 10 10 10 10 10 2 10 10 10 10 10 10 2 2 10 10 2 2 2 2 10 2 2 10 8
left_child=4 -2 3 6 5 -1 7 -3 35 18 22 13 17 16 15 -14 -12 -13 31 21 -21 32 23 30 25 27 33 -25 -22 -30 -11 -8 -20 -26 -31 -5 -29
right_child=1 2 -4 8 -6 -7 9 -9 -10 10 11 12 14 -15 -16 -17 -18 -19 19 20 28 -23 -24 24 26 -27 -28 36 29 34 -32 -33 -34 -35 -36 -37 -38
leaf_value=0.0052842938775817553 0.00668510051710265 0.0047862479968794752 -0.0074857244413766644 0.0019808132352371671 0.0018777660135179759 0.011120349890738724 0.0030570550203057271 -0.00068319588206412101 0.0054936199861445592 -0.0032188814714679431 -0.0016462601974074329 -0.0076057209148579696 -0.0050996914138354789 -0.0032552014558666176 -0.0003564277388196548 -0.00082622511481696907 0.001734981225923665 -0.0035649781301617619 -0.0017217636679098093 0.0028034969506552441 -0.0026963443300602112 -0.0039556238890159877 -0.0027334492328373017 0.0024489409449909411 0.0011836199004028457 -0.0038401534970970322 0.0039070455036458685 -0.0024194951252346593 0.0015187077629870097 -0.0023993019607150929 -0.00041441838741302489 -3.4660109403458512e-05 0.001159227941534482 -0.001432493356961376 6.8319017466689859e-05 -6.6997353943796563e-05 -0.00041096172265141554
leaf_weight=26 20 20 30 28 24 24 20 21 20 28 20 21 25 30 33 21 30 20 21 31 21 24 27 20 31 20 20 20 37 29 24 21 23 21 20 27 22
leaf_count=26 20 20 30 28 24 24 20 21 20 28 20 21 25 30 33 21 30 20 21 31 21 24 27 20 31 20 20 20 37 29 24 21 23 21 20 27 22
internal_value=-6.91305e-05 -0.00062727 -0.000812195 -0.000551603 0.00623505 0.00824872 -0.000845653 0.00203526 0.00224913 -0.00102209 -0.0015047 -0.00242177 -0.00334775 -0.00100862 -0.00203609 -0.00320785 0.000376725 -0.00576644 -0.000108347 -0.000441493 0.000126323 -0.00157896 -0.00077484 -0.000506165 -6.8906e-06 -0.00107804 0.00121108 -0.000140218 -0.000668084 -0.000147511 -0.00195676 0.00151037 -0.000223496 0.000120019 -0.00141089 0.00099228 -0.00140143
internal_weight=920 846 826 796 74 50 721 41 75 680 433 200 120 80 79 46 50 41 247 206 138 68 233 206 154 82 72 62 107 86 52 41 44 52 49 55 42
internal_count=920 846 826 796 74 50 721 41 75 680 433 200 120 80 79 46 50 41 247 206 138 68 233 206 154 82 72 62 107 86 52 41 44 52 49 55 42
cat_boundaries=0 1
cat_threshold=17211392
is_linear=0
shrinkage=0.03


Tree=23
num_leaves=34
num_cat=1
split_feature=14 4 12 1 12 12 3 24 16 6 23 6 13 22 6 7 5 4 22 12 6 13 20 7 5 24 12 7 12 13 12 5 5
split_gain=3.98016 1.35176 2.2001 0.391394 0.647137 0.522455 0.494197 0.608631 0.374795 0.365758 0.355611 0.330274 0.315611 0.278051 0.303682 0.2635 0.368775 0.212642 0.205497 0.201112 0.192996 0.152849 0.150877 0.135978 0.130205 0.119059 0.114798 0.134167 0.0974075 0.0949071 0.069833 0.0632439 0.0457745
threshold=1.0000000180025095e-35 -71.07286990499999 6932.5000000000009 8.5000000000000018 5402.0000000000009 6081.0000000000009 0 0.056220261000000007 1.0000000180025095e-35 1902.5000000000002 0.057074937500000013 1890.5000000000002 1341.2000000000003 0.035352155500000003 1907.5000000000002 1994.5000000000002 42.316553680000005 -71.135880154999981 0.059163887500000005 2129.0000000000005 1919.5000000000002 1917.5000000000002 3.5000000000000004 1988.5000000000002 42.345022670000006 0.095874936000000008 3910.5000000000005 2022.5000000000002 2752.0000000000005 2451.4000000000005 3453.5000000000005 42.293294135000004 42.303080230000006
decision_type=10 2 10 2 10 10 9 10 10 10 10 10 10 10 10 10 2 2 10 10 10 10 10 10 2 10 10 8 10 10 10 2 2
left_child=1 -1 -3 6 8 -6 7 -2 11 10 -9 -5 19 24 15 16 -15 -16 23 -8 30 28 26 -11 -14 31 27 -13 -19 -17 -10 -20 -23
right_child=3 2 -4 4 5 -7 12 9 20 18 -12 22 13 14 17 29 -18 21 25 -21 -22 32 -24 -25 -26 -27 -28 -29 -30 -31 -32 -33 -34
leaf_value=0.010126019284272423 0.0051501856677027211 0.0070721626075866979 -0.0050509187446108883 -0.0027169765384169294 -0.0083782997926963223 -0.0015917183761236877 -0.00021462475574624381 -0.00048928898280589943 -4.6621955071504298e-05 -0.0029992619584742431 0.0040469005000532453 -0.0011320149429957383 0.0024175720306305699 -0.0014741011092375064 -0.0029819010590602241 -6.4878219738602623e-05 -0.0061328014816778393 -7.9842426030981271e-05 0.0023336414898383535 0.0034557837780032838 -0.0040179576072259804 2.3432946763932706e-05 -0.0013668488858225333 2.2138332503593778e-05 -0.00068912463701473409 -0.001119725845023317 0.0028454675404645966 0.0019039007360798083 0.0028059661920581546 -0.0024942707141925552 -0.0023660262945023451 0.00013188306125812231 -0.0016984169147908688
leaf_weight=38 26 37 20 29 20 21 37 26 25 36 37 23 22 28 27 29 35 21 26 20 39 23 21 21 25 26 31 28 20 28 21 21 34
leaf_count=38 26 37 20 29 20 21 37 26 25 36 37 23 22 28 27 29 35 21 26 20 39 23 21 21 25 26 31 28 20 28 21 21 34
internal_value=2.61021e-05 0.0058082 0.0028047 -0.000645129 -0.00161168 -0.00502291 -0.000204035 0.000890513 -0.000947079 0.000338984 0.00219643 5.65395e-05 -0.000891428 -0.00131512 -0.00171958 -0.00279182 -0.00411765 -0.000676243 -0.000571057 0.00111062 -0.00248818 -1.73075e-05 0.000856049 -0.00190492 0.000785144 0.000482124 0.00143494 0.000539322 0.00136116 -0.00128069 -0.00113329 0.00137312 -0.00101521
internal_weight=921 95 57 826 258 41 568 219 217 193 63 132 349 292 245 120 63 125 130 57 85 98 103 57 47 73 82 51 41 57 46 47 57
internal_count=921 95 57 826 258 41 568 219 217 193 63 132 349 292 245 120 63 125 130 57 85 98 103 57 47 73 82 51 41 57 46 47 57
cat_boundaries=0 1
cat_threshold=2402816
is_linear=0
shrinkage=0.03


Tree=24
num_leaves=35
num_cat=1
split_feature=24 6 12 7 4 18 7 20 3 13 22 24 22 6 1 13 12 12 4 23 7 14 22 4 7 24 23 15 22 7 22 22 4 24
split_gain=3.10659 2.12051 1.61794 1.14885 1.0358 0.963025 0.390078 0.303638 0.644453 0.356572 0.318444 0.426963 0.328581 0.22074 0.355047 0.266557 0.31536 0.350474 0.189139 0.185318 0.154759 0.138468 0.137007 0.119589 0.118016 0.123927 0.248762 0.112292 0.147286 0.0921532 0.130067 0.130392 0.0715073 0.05184
threshold=0.026307502500000003 2021.5000000000002 7689.5000000000009 1980.5000000000002 -71.06991180499999 4.5000000000000009 2009.5000000000002 2.5000000000000004 0 3712.0000000000005 0.065684605000000021 0.064892921000000006 0.057553302500000007 1893.5000000000002 5.5000000000000009 1345.2000000000003 2901.5000000000005 2559.0000000000005 -71.077875249999991 0.069713460500000005 2018.5000000000002 5.5000000000000009 0.061859443000000007 -71.131359959999983 1999.5000000000002 0.079466861000000014 0.055638227000000005 1.5000000000000002 0.047808030500000008 2021.5000000000002 0.059088818000000008 0.053297285000000007 -71.069065634999987 0.080975481000000016
decision_type=8 8 8 10 2 10 10 10 9 10 10 8 8 10 2 8 10 10 2 8 10 10 8 2 10 10 10 10 10 10 10 10 2 10
left_child=3 2 5 -1 -5 -2 7 8 24 13 11 27 -13 14 -10 -15 17 -17 23 29 -21 -20 -14 -18 25 26 -7 -9 -29 30 31 32 -8 -32
right_child=1 -3 -4 4 -6 6 19 10 9 -11 -12 12 22 15 -16 16 18 -19 21 20 -22 -23 -24 -25 -26 -27 -28 28 -30 -31 33 -33 -34 -35
leaf_value=0.01198430486023426 0.0056710132437625101 0.0087677070072719031 -0.0091084800510933366 0.00812109710914748 -0.0010541364003438503 0.0010475873523254824 -0.00048481459317442312 -0.002567286353012988 -0.0053405646582205708 -0.004496443409116182 0.00061263419545866784 -0.0067404573074271602 -0.0012465339012901651 0.0017774612276947924 -0.00076647506507400128 -0.0006775748799555003 -0.00057698932439088815 -0.0060715627377586701 9.8563109820063862e-05 -0.0030534239845292173 0.00015078925542184152 -0.0029693657517366641 -0.0045174445685864026 0.0022242451088705789 -0.00063427774277939044 0.00026640488510020079 0.0052666620664032441 -0.0015429461905016348 0.0015757657521005188 0.0024108962936756702 -0.0017238285126334699 0.0026961087084735832 0.0016878402392779077 0.00026902742853218855
leaf_weight=20 20 20 20 20 23 33 38 37 25 31 31 30 28 34 38 23 24 20 25 23 31 27 20 30 21 29 20 38 20 25 25 30 20 21
leaf_count=20 20 20 20 20 23 33 38 37 25 31 31 30 28 34 38 23 24 20 25 23 31 27 20 30 21 29 20 38 20 25 25 30 20 21
internal_value=-0.000174483 -0.000649899 -0.000885126 0.00620178 0.00330099 -0.00067293 -0.000839033 -0.0012393 -0.000734865 -0.00145917 -0.00217076 -0.00267018 -0.00430342 -0.00111884 -0.00263668 -0.000584816 -0.00113212 -0.00326738 -0.000243484 0.000259073 -0.00124467 -0.00152037 -0.00267379 0.000991398 0.00123031 0.00185795 0.00270774 -0.00129834 -0.000459048 0.000774366 0.000453447 0.0011249 0.000280286 -0.00082768
internal_weight=920 857 837 63 43 817 797 584 380 277 204 173 78 246 63 183 149 43 106 213 54 52 48 54 103 82 53 95 58 159 134 88 58 46
internal_count=920 857 837 63 43 817 797 584 380 277 204 173 78 246 63 183 149 43 106 213 54 52 48 54 103 82 53 95 58 159 134 88 58 46
cat_boundaries=0 1
cat_threshold=2369536
is_linear=0
shrinkage=0.03


Tree=25
num_leaves=38
num_cat=1
split_feature=14 12 24 12 12 22 1 5 3 22 23 13 12 4 20 7 22 7 5 12 6 23 12 20 22 12 4 4 4 12 12 12 24 12 5 22 20
split_gain=4.64077 0.655564 0.879019 0.698151 0.381295 0.859272 0.675665 0.366867 0.298069 0.303226 0.409815 0.283852 0.294159 0.266941 0.270213 0.368252 0.260204 0.248634 0.247874 0.235196 0.20401 0.182272 0.172172 0.152927 0.148206 0.136402 0.135323 0.27628 0.155588 0.118619 0.114699 0.114152 0.102692 0.0998147 0.0889758 0.0497531 0.068225
threshold=1.0000000180025095e-35 2936.0000000000005 0.025046057500000003 5365.5000000000009 5391.5000000000009 0.023444463000000002 10.500000000000002 42.303080230000006 0 0.078641190000000014 0.068868571000000003 2800.6750000000006 2419.0000000000005 -71.055288669999996 2.5000000000000004 2012.5000000000002 0.057723847500000001 1992.5000000000002 42.330881975000004 3101.0000000000005 1902.5000000000002 0.068043857000000013 2451.0000000000005 2.5000000000000004 0.069396248000000008 3760.5000000000005 -71.057890764999982 -71.075899674999988 -71.036937949999995 4934.5000000000009 2201.0000000000005 3286.0000000000005 0.062456089500000006 2923.0000000000005 42.282675870000006 0.056865621000000005 1.0000000180025095e-35
decision_type=10 10 8 10 10 10 2 2 9 10 10 10 8 2 8 10 10 10 2 10 10 10 10 10 10 10 2 2 2 10 10 10 10 10 2 10 10
left_child=1 -1 3 -3 5 -2 7 24 11 10 13 12 16 14 17 32 -7 20 21 30 -10 -9 -22 26 -6 -25 27 -14 -28 -13 -15 -24 33 -16 -34 36 -19
right_child=4 2 -4 -5 6 8 -8 18 9 -11 -12 29 23 19 15 -17 -18 35 -20 -21 22 -23 31 25 -26 -27 28 -29 -30 -31 -32 -33 34 -35 -36 -37 -38
leaf_value=0.011055788291352136 0.0053756136868311002 0.0020657641393232291 -0.00051102770492434497 0.0090876456297253466 0.0020492583411396482 0.00085833615740389516 -0.0068764055728785358 -0.00596106524712273 0.003629310966023932 0.0018223499998566695 -0.004864709690798638 -0.0027812867423128934 0.00061699476226099895 -0.0025925457487917607 0.00022578315080507941 0.0017827912932261824 -0.0036445168354215895 -0.0014832285166318927 -0.0001203953987918794 -0.0049748134743422268 0.0020571725300567991 -0.0019628828507848085 -0.0022040773177286611 -0.0015930365898053753 -0.0012013636553560249 0.0017477291873232883 -0.00082981683327075604 0.0052348467630559002 0.0025554611156361974 0.00013281837275082415 0.00038781438305574868 0.00067222950317395421 -0.0020875124545030603 -0.002486982459409369 -0.0045279825693712783 -0.0021358815880791683 0.00078374008664728267
leaf_weight=20 22 20 20 38 31 25 21 20 22 31 25 30 20 26 22 23 20 27 24 24 33 23 23 21 20 21 21 28 27 21 20 25 35 26 25 27 20
leaf_count=20 22 20 20 38 31 25 21 20 22 31 25 30 20 26 22 23 20 27 24 24 33 23 23 21 20 21 21 28 27 21 20 25 35 26 25 27 20
internal_value=0.000115601 0.00625494 0.00489959 0.00674236 -0.000616821 -0.000326666 -0.00204453 -0.00113407 -0.000522221 -0.000973746 -0.00121691 0.00034266 0.000908965 -0.000963456 -0.000579045 -0.00160641 -0.00117865 0.000186076 -0.00257796 -0.00262289 0.0011346 -0.00391572 0.000421024 0.00159329 0.000775916 7.9145e-05 0.00224809 0.0033626 0.00108769 -0.00160188 -0.00131606 -0.000722855 -0.00233792 -0.0012644 -0.00316193 -0.00113169 -0.00052233
internal_weight=927 98 78 58 829 690 139 118 668 434 403 234 183 378 308 131 45 177 67 70 103 43 81 138 51 42 96 48 48 51 46 48 108 48 60 74 47
internal_count=927 98 78 58 829 690 139 118 668 434 403 234 183 378 308 131 45 177 67 70 103 43 81 138 51 42 96 48 48 51 46 48 108 48 60 74 47
cat_boundaries=0 1
cat_threshold=929792
is_linear=0
shrinkage=0.03


Tree=26
num_leaves=36
num_cat=2
split_feature=22 6 13 14 6 3 6 16 14 18 13 5 5 1 4 21 5 22 4 7 20 22 22 22 23 7 13 1 5 5 4 5 22 5 20
split_gain=2.77797 2.40974 1.06116 1.0867 0.338322 0.395498 0.3159 0.365658 0.311257 0.248571 0.314431 0.259228 0.240638 0.231728 0.203883 0.156995 0.404725 0.239946 0.219701 0.184966 0.187772 0.155208 0.368934 0.145167 0.17107 0.142645 0.237472 0.163197 0.130983 0.0795802 0.0733449 0.120069 0.0702651 0.0392288 0.0190402
threshold=0.0052875415000000004 2021.5000000000002 6794.4000000000005 1.0000000180025095e-35 1994.0000000000002 0 1897.0000000000002 1.0000000180025095e-35 8.5000000000000018 9.5000000000000018 1633.0000000000002 42.372188715000007 42.285871475 4.5000000000000009 -71.068298389999981 1 42.324169095000009 0.046569697000000007 -71.150860324999982 2011.5000000000002 2.5000000000000004 0.057553302500000007 0.053432241000000005 0.065105577000000012 0.053976769000000008 2009.5000000000002 3268.0000000000005 7.5000000000000009 42.338317880000005 42.31534675000001 -71.134976419999973 42.30666857500001 0.059452401500000009 42.288533520000009 2.5000000000000004
decision_type=8 8 8 10 10 9 10 10 10 10 10 2 2 2 2 1 2 10 2 8 10 10 10 10 10 10 10 2 2 2 2 2 10 2 10
left_child=-1 2 3 -2 5 9 7 13 15 10 11 -5 -11 -7 -12 17 30 18 -8 32 23 22 -22 24 33 26 27 -14 -9 -10 -17 -32 -19 -21 -20
right_child=1 -3 -4 4 -6 6 8 28 29 12 14 -13 25 -15 -16 16 -18 19 34 20 21 -23 -24 -25 -26 -27 -28 -29 -30 -31 31 -33 -34 -35 -36
leaf_value=0.00799585284420142 0.0052330424915999173 0.009513704790310426 -0.0072031761413174017 0.0021628517149016261 -0.0034682212364194648 -0.0065298770714019025 0.00023900183715990609 0.00094602066258500726 -0.0042686769929291173 0.0017884930863825454 0.00081714242534792938 -0.0020058028226525616 -0.0012109934049658476 -0.0024789429054810448 0.0045270071419266358 -0.0018236195680635448 0.0040727699361741542 -0.00077328651212155814 -0.0043401961001966671 0.0016053896470527565 0.00051485203313999454 0.00098001384409144524 -0.0048605914626802717 -0.00060969783505424849 0.0038203156766338417 0.00077802680432796471 0.00036004890826711009 -0.0048559956602073958 -0.0021904073828565222 -0.0015326974467773521 0.0012089037004625425 -0.0015510276055217466 -0.003147611296735704 -0.00021918265445327215 -0.0026588807507817234
leaf_weight=37 29 21 20 24 34 20 20 27 21 36 22 28 23 38 35 20 24 26 20 20 25 25 20 29 25 28 30 22 20 20 39 21 20 21 20
leaf_count=37 29 21 20 24 34 20 20 27 21 36 22 28 23 38 35 20 24 26 20 20 25 25 20 29 25 28 30 22 20 20 39 21 20 21 20
internal_value=5.53486e-05 -0.000289954 -0.000542464 -0.000373895 -0.000582644 -0.000450725 -0.000909539 -0.00238978 -0.000552898 0.000528248 0.00161518 -7.73017e-05 -0.000291809 -0.00396282 0.00313391 -0.000277821 0.000676146 -0.000646162 -0.00232724 -0.000189887 0.000281461 -0.000890224 -0.00192796 0.00114509 0.00191372 -0.00102911 -0.00170513 -0.00305982 -0.000406458 -0.00300232 -0.000297068 0.000233337 -0.00185061 0.000687885 -0.00358489
internal_weight=910 873 852 832 803 769 521 105 416 248 109 52 139 58 57 375 104 271 60 211 165 70 45 95 66 103 75 45 47 41 80 60 46 41 40
internal_count=910 873 852 832 803 769 521 105 416 248 109 52 139 58 57 375 104 271 60 211 165 70 45 95 66 103 75 45 47 41 80 60 46 41 40
cat_boundaries=0 1 2
cat_threshold=4628992 2
is_linear=0
shrinkage=0.03


Tree=27
num_leaves=34
num_cat=2
split_feature=24 22 5 12 14 6 3 6 7 14 20 12 13 12 12 22 22 24 13 22 22 2 5 5 5 20 6 1 22 13 6 6 24
split_gain=3.16921 1.04925 1.13531 0.474104 1.56385 0.355563 0.39015 0.395448 0.596044 0.322468 0.303099 0.379089 0.362792 0.515953 0.215492 0.163775 0.150975 0.26581 0.146158 0.195186 0.23627 0.199907 0.176148 0.158036 0.138695 0.109377 0.139699 0.100673 0.16748 0.15216 0.0991607 0.0931024 0.0120484
threshold=0.026307502500000003 0.00066282600000000015 42.324715160000004 7331.0000000000009 11.500000000000002 1962.5000000000002 0 1897.0000000000002 1983.5000000000002 8.5000000000000018 2.5000000000000004 4790.0000000000009 2702.0000000000005 2812.0000000000005 3101.0000000000005 0.057427289500000013 0.078641190000000014 0.096882578000000011 1051.4000000000003 0.06152579200000001 0.067958079000000018 1 42.332686095000007 42.297216135000006 42.311971385000007 1.5000000000000002 1935.5000000000002 6.5000000000000009 0.053432241000000005 1906.0000000000002 1889.5000000000002 1910.5000000000002 0.059352220000000004
decision_type=10 8 2 10 8 10 9 10 10 10 10 10 10 10 10 10 10 10 10 10 10 9 2 2 2 10 10 2 10 10 10 10 10
left_child=1 -1 -3 4 5 6 10 8 14 16 12 -12 13 -2 -8 -7 17 18 -9 21 31 22 23 -20 -11 32 27 28 -27 -29 -10 -21 -23
right_child=3 2 -4 -5 -6 15 7 9 30 24 11 -13 -14 -15 -16 -17 -18 -19 19 20 -22 25 -24 -25 -26 26 -28 29 -30 -31 -32 -33 -34
leaf_value=0.010505032742189037 0.00019724732269353878 0.0085482595678742796 0.00010080449211482817 -0.0049023800502930367 0.0070522197917103771 -0.00095359190949238835 -0.0028201027533837726 0.0023121151721782304 0.00069606112686040639 -0.0045807164149092774 -0.003175343987116191 0.0020928699699950151 -0.00036860348312378242 0.0058827004140681203 -0.0069593249314019211 -0.0043469443103869359 0.0018470321705734186 -0.003197586484826528 0.00063434991788548917 -0.0042498586396686735 0.00053337944671511645 0.00031427339015697894 -0.00055234058643691239 0.0034095032787504228 -0.0011046259024220964 0.00077950090926606199 0.00099228366211588886 -0.00034836451118083105 -0.0025941009673156909 -0.0035866490150378507 -0.0015235226932698142 -0.0013768396483335112 0.0013503041346224823
leaf_weight=26 25 22 38 20 24 23 27 21 33 20 27 21 35 33 22 30 32 25 38 23 28 21 35 36 22 35 27 22 20 32 38 20 20
leaf_count=26 25 22 38 20 24 23 27 21 33 20 27 21 35 33 22 30 32 25 38 23 28 21 35 36 22 35 27 22 20 32 38 20 20
internal_value=0.000116084 0.00556526 0.00328756 -0.000451133 -0.000336026 -0.000568817 -0.000396294 -0.000726753 -0.0022709 -0.000349554 0.00098029 -0.000874826 0.00204118 0.00347695 -0.00478055 -0.00291929 -0.000104324 -0.000263459 -6.14782e-05 -0.00020717 -0.00160336 0.000143817 0.00109173 0.00201188 -0.00282794 -0.000477295 -0.000912423 -0.00138896 -0.00047168 -0.00229767 -0.000496546 -0.00297523 0.000839771
internal_weight=921 86 60 835 815 791 738 597 120 477 141 48 93 58 49 53 435 403 378 357 71 286 109 74 42 177 136 109 55 54 71 43 41
internal_count=921 86 60 835 815 791 738 597 120 477 141 48 93 58 49 53 435 403 378 357 71 286 109 74 42 177 136 109 55 54 71 43 41
cat_boundaries=0 1 2
cat_threshold=270848 8416
is_linear=0
shrinkage=0.03


Tree=28
num_leaves=37
num_cat=1
split_feature=22 6 12 14 7 4 13 2 6 5 16 18 6 12 4 24 4 12 24 5 4 24 1 22 13 24 24 24 7 24 22 15 5 24 22 7
split_gain=2.62882 2.21325 1.21645 1.06823 0.590697 0.530011 0.347977 0.377334 0.352421 0.294222 0.280036 0.260879 0.220647 0.215689 0.212699 0.200304 0.196907 0.174253 0.168138 0.139565 0.164781 0.337588 0.130969 0.128996 0.155158 0.197921 0.152328 0.176671 0.226992 0.208297 0.157885 0.111039 0.0787665 0.0693383 0.0618253 0.0489789
threshold=0.006902712000000001 2021.5000000000002 8638.5000000000018 1.0000000180025095e-35 2018.5000000000002 -71.065776599999978 2934.2000000000003 0 1897.0000000000002 42.292638710000013 1.0000000180025095e-35 12.500000000000002 1978.0000000000002 2709.0000000000005 -71.060331864999981 0.10223730450000001 -71.077624004999976 3138.0000000000005 0.06906818200000002 42.33218145 -71.063955404999987 0.075195318500000011 5.5000000000000009 0.037414335500000007 1906.0000000000002 0.059067181500000003 0.08204637200000002 0.067224614500000016 1989.5000000000002 0.061591777500000007 0.055250961500000008 2.5000000000000004 42.28379149500001 0.054493956000000003 0.058603776000000003 1.0000000180025095e-35
decision_type=8 8 8 10 10 2 10 9 10 2 10 10 10 10 2 10 2 10 10 2 2 10 2 10 10 10 10 10 10 10 10 10 2 8 10 10
left_child=5 2 3 -2 6 -1 7 13 10 34 22 16 23 -5 18 17 -11 -6 -15 20 21 -13 -9 -10 26 -26 27 29 -29 33 -31 32 -27 -25 -8 -23
right_child=1 -3 -4 4 15 -7 9 8 12 11 -12 19 -14 14 -16 -17 -18 -19 -20 -21 -22 35 -24 24 25 31 -28 28 -30 30 -32 -33 -34 -35 -36 -37
leaf_value=0.010753222411232336 0.0050113031310179534 0.0090023456141352654 -0.0077665934206119598 -0.0010914931063307448 0.0011248054666170252 0.003647751518126045 -0.0010154497551931334 -0.0057557996802709314 0.0019055292777636129 -0.0021077571900399482 -0.00029649132671165129 -0.0041269682699099312 -0.0031374494459193488 0.0051506067000861681 -0.00010550312517631438 -0.00034122781388254626 -0.006045625536436481 0.0046217958831514874 0.0015689984522759914 3.0548174625202529e-05 -0.0046773238799401691 0.001129147655817426 -0.0026203267161867445 -0.00042953325689516287 -0.0037544508720748124 -0.0012109738998961719 -0.0018586195092648266 0.0034676150031737051 -0.00058102709141426854 -8.7758961599320172e-05 -0.003689534634717607 -0.0022237668145233046 0.0011213768491870723 0.0017116510021072384 0.0011738714801434139 -0.00089684387136782916
leaf_weight=20 30 21 20 29 27 20 20 21 22 22 30 27 25 20 30 26 27 25 30 30 20 21 34 21 23 21 29 31 20 23 20 25 31 36 25 20
leaf_count=20 30 21 20 29 27 20 20 21 22 22 30 27 25 20 30 26 27 25 30 30 20 21 34 21 23 21 29 31 20 23 20 25 31 36 25 20
internal_value=-4.99309e-05 -0.000394685 -0.000634058 -0.000455415 -0.000663559 0.00737611 -0.000928145 -0.000509337 -0.000914091 -0.00195016 -0.0026457 -0.00252726 -0.000485153 0.00100655 0.00189545 0.00180314 -0.00435512 0.00286153 0.00307454 -0.00173802 -0.00233451 -0.00158765 -0.00389891 -0.000255962 -0.00043197 -0.00137309 9.55715e-05 0.000480638 0.00189927 -0.000254506 -0.00180878 -0.00062276 0.000174389 0.000928989 0.000199918 0.000143036
internal_weight=922 882 861 841 811 40 733 521 412 212 85 167 327 109 80 78 49 52 50 118 88 68 55 302 280 100 180 151 51 100 43 77 52 57 45 41
internal_count=922 882 861 841 811 40 733 521 412 212 85 167 327 109 80 78 49 52 50 118 88 68 55 302 280 100 180 151 51 100 43 77 52 57 45 41
cat_boundaries=0 1
cat_threshold=40
is_linear=0
shrinkage=0.03


Tree=29
num_leaves=37
num_cat=2
split_feature=22 6 12 14 4 7 13 4 6 2 4 12 24 1 12 13 13 13 4 12 6 7 4 13 5 6 22 19 24 20 13 7 13 20 24 13
split_gain=2.24218 1.99343 1.13455 0.674571 0.43048 0.34088 0.243108 0.360156 0.344586 0.346142 0.280199 0.211532 0.241704 0.182945 0.227605 0.46922 0.269315 0.179641 0.220896 0.217462 0.173921 0.199874 0.15603 0.127609 0.114809 0.10592 0.0916077 0.0885901 0.0915461 0.0775593 0.0887168 0.0919689 0.0593564 0.131173 0.0497945 0.0174084
threshold=0.006902712000000001 2021.5000000000002 8388.0000000000018 1.0000000180025095e-35 -71.063272134999991 2021.5000000000002 3044.5000000000005 -71.078364064999974 1994.0000000000002 0 -71.059096834999991 5051.0000000000009 0.092974812000000018 9.5000000000000018 2853.0000000000005 1996.9000000000003 1474.0000000000002 1051.4000000000003 -71.041724339999988 4314.0000000000009 1897.0000000000002 2001.5000000000002 -71.084186594999991 3562.1000000000004 42.330881975000004 1902.5000000000002 0.049604103000000004 1 0.06906818200000002 1.0000000180025095e-35 1271.8000000000002 1985.5000000000002 1861.4500000000003 2.5000000000000004 0.069409360500000017 3623.5000000000005
decision_type=8 8 8 10 2 10 10 2 10 9 2 10 10 2 10 10 10 10 2 10 10 10 2 10 2 10 10 9 10 10 10 10 10 10 10 10
left_child=4 2 3 -2 -1 6 8 22 9 13 11 -9 -13 14 16 -16 -5 -11 19 20 21 -19 23 -8 -7 -15 -25 28 -17 -22 -31 32 33 -32 -33 -12
right_child=1 -3 -4 5 -6 24 7 10 -10 17 35 12 -14 25 15 27 -18 18 -20 -21 29 -23 -24 26 -26 -27 -28 -29 -30 30 31 34 -34 -35 -36 -37
